8
-6
1
-19
2
1
-30
-6
3
-14
260
-20
3
5
3
-32
124
-31
-6
-36
20
15
-112
-9
13
-22
48
20
-45
17
-63
-152
-34
245
181
16
5
6
-14
-3
6
24
-18
1
6
-25
390
3
18
-20
-12
-9
52
-7
-2
-152
31
-55
-144
-36
11
-16
4
12
2
10
-10
-46
6
-32
144
-4
11
13
-10
3
-34
5
0
-17
11
-22
-38
-11
7
2
5
9
21
-3
-20
-203
1
27
257
8
14
7
6
7
-35
-1
-7
-18
9
-17
15
-4
-3
4
1
2
-143
5
-101
102
34
-95
438
-51
-14
-5
-3
6
-10
-1
30
-58
-3
76
6
-6
6
13
20
6
12
-2
7
-166
-18
-3
302
12
-14
11
-5
58
-32
4
3
-23
7
-14
140
-41
-11
1
62
5
93
448
-41
-16
-4
-13
-246
-38
-13
-5
219
41
-108
123
831
-89
19
490
44
-38
9
-9
41
-34
-128
92
-8
26
-11
-29
-275
-2
-24
-7
-57
-11
-475
385
-9
-664
10
79
-340
-25
-11
-16
95
-59
131
81
2
-49
-14
-14
165
-388
-25
1
-47
-3
-13
95
-13
17
29
-12
-59
-108
-5
-4
5
8
41
0
-12
-99
-5
-2
-30
3
11
-5
23
4
-34
-3
-7
-10
13
-40
-13
57
-18
-8
23
17
-562
35
-27
37
21
-153
53
-103
9
5
2
-1
56
0
-49
-28
1
346
53
4
4
2
102
-1
143
143
123
-119
29
8
173
14
-7
31
-9
-9
188
73
12
-258
-13
53
2
10
-18
-37
45
3
-37
-42
22
38
68
-23
65
-10
-29
-6
-27
40
17
-41
-9
147
6
-4
-30
-93
17
33
-4
-13
-84
-3
-26
57
10
-26
-37
-15
-302
100
-1
-77
-106
-89
-6
101
89
-21
60
44
-16
-29
-7
14
128
1
15
45
-40
-85
25
24
5
-19
13
42
66
60
-5
-108
-22
15
9
-1
-4
10
20
-3
11
-14
0
-26
4
-3
18
-15
0
-1
6
4
74
23
-2
-63
-3
-10
23
5
5
111
-2
-118
783
402
5
-1501
28
221
97
32
0
-2
3
-8
42
33
-7
-9
6
12
3
-33
-83
-100
-37
53
-191
-81
14
370
1
-95
-31
15
107
66
-31
5
-9
36
-19
-46
-47
-32
-157
12
78
319
4
3
61
11
29
271
-58
-83
-374
-77
-226
-21
76
-1
22
-18
77
478
39
80
-96
22
-69
372
17
-16
-24
-41
28
-44
42
52
15
12
394
1223
-88
23
54
123
-7
-39
-78
-10
-453
-62
59
-262
-3
-6
-14
-12
-8
15
-132
40
-21
1
19
203
-21
-102
-13
6
34
146
-99
17
-88
-19
-85
-240
-5
1
2
-2
72
237
20
-30
-46
-19
4
76
-4
10
7
-7
-1
-42
-37
17
-86
-2
-28
390
7
33
-8
45
20
181
-57
-152
-266
1
52
-70
-7
12
5
151
32
-110
-2
-11
-33
11
-123
349
10
-11
44
-25
-7
132
13
229
-189
26
-2
-10
18
-8
1
-147
13
6
66
87
-19
8
-18
-17
39
19
21
24
-4
-5
-20
-83
216
200
-26
63
51
-481
-41
238
9
-31
38
-56
30
119
6
-20
-21
5
-22
17
1
12
-94
-19
-77
-36
-81
-176
170
-76
-22
37
-37
-415
1779
-334
145
124
5
-56
-21
-7
46
64
3
42
0
1
78
54
3
-5
-3
5
-1
-11
-4
-11
-33
41
27
71
8
-4
-12
0
7
19
4
8
3
-69
29
-11
1
3
-6
-4
-3
-52
-1
-4
-4
2
32
31
4
-5
3
0
-103
-430
2
-23
4
369
-19
-37
1
4
41
2
8
9
7
-2
1
26
1
-5
-1
-214
54
-36
19
132
8
-58
64
-68
69
119
11
-61
-26
27
27
5
-91
24
-34
13
5
16
-189
39
-28
-381
-294
9
33
1
-109
-102
-35
-98
-120
38
18
-698
-132
12
56
-24
-134
1
-73
-36
-46
-14
-23
-20
-90
30
101
-28
-82
-16
20
-16
630
-40
37
104
778
2
79
130
-1271
68
21
-58
5
-6
33
-110
379
-21
96
2
-155
150
-42
-4
-47
-92
-42
-135
176
-2
12
-28
-91
9
-20
-44
10
10
2
-321
-26
-13
-16
14
-256
-4
13
-26
4
-60
8
48
-2
-4
-45
-7
-40
-3
-7
-12
-4
-231
-28
317
49
5
-380
-69
60
11
105
-107
2
-15
-11
175
-32
5
-31
14
-76
-5
18
-4
254
-7
28
247
832
24
133
86
-256
-30
-44
55
2
1
7
3
63
120
-30
80
6
-27
-17
-6
169
19
6
12
-40
81
-2
77
-4
33
-26
-1
1
-32
25
21
1
-290
23
255
-25
-459
-32
-7
13
-5
-24
8
-26
-135
17
541
-2
-11
54
-37
-49
-23
5
78
-175
142
147
2047
-47
133
24
-276
-85
-22
-7
-8
2
30
-102
21
106
-37
19
39
-17
11
-48
-6
96
-37
-79
-37
-134
-28
-19
162
1
-11
-3
-6
-19
-20
32
-105
-10
11
-9
-66
7
6
13
3
13
30
25
36
14
-13
-48
-72
29
17
5
21
329
241
-86
509
85
-83
-23
387
7
0
4
1
4
75
-7
62
-4
25
-15
20
-82
22
28
1
-24
-96
-20
318
-22
-62
22
83
-6
6
28
4
30
-3
-2
20
4
30
-14
1
42
18
39
-89
305
-6
112
741
-104
-11
-1
-62
13
-52
-86
-8
-18
12
38
65
-3
130
39
14
-14
-6
-24
16
-77
-21
-64
-161
-23
34
11
28
30
-34
-129
3
112
-25
148
190
-50
643
-26
38
-14
12
-221
-172
31
-12
-95
-7
56
131
41
-72
-3
42
118
-84
284
-13
4
-17
1
64
36
7
22
-34
-36
-17
13
15
-6
-5
9
80
0
-3
-1
27
-2
-21
-37
-4
10
22
9
56
3
-15
-36
316
472
172
-30
-61
7
-24
-4
89
-18
25
8
3
17
17
-8
3
-5
-14
1
3
0
-5
-21
-73
-92
-88
296
3
-171
48
100
253
113
-29
19
-8
5
-18
3
-1
24
-98
71
52
12
16
19
-63
29
-113
3
87
-8
27
475
111
46
-17
-5
23
-32
-23
51
-18
-15
87
-61
-5
4
-41
13
-19
-13
19
-2
6
-26
-96
85
82
13
-30
37
-21
-16
52
28
-2
-3
217
-534
-53
-14
-23
-95
85
13
-53
-13
-108
-2
17
829
151
-107
-66
12
-21
-23
-6
6
-76
1
-88
395
-15
-7
-42
-13
-6
12
11
-6
4
-2
44
13
11
-21
-6
-63
-6
-1
-46
3
1
-17
-28
-41
0
3
-9
3
2
1
-85
2
16
-24
-660
27
-25
9
27
6
0
5
5
3
9
2
10
-6
1
5
-9
2
-26
29
-7
33
-57
-21
93
340
40
3
-72
-20
-31
-35
-24
-83
-161
-6
9
3
-71
-111
-48
-421
71
19
10
-76
741
-8
-155
5
-15
502
3
45
-33
158
-3
-168
-33
2047
-74
6
885
59
-7
203
35
8
25
78
412
-69
-25
31
-3
-880
-47
-16
7
434
-6
264
9
-126
-249
42
97
1225
2
186
-39
-71
41
-256
162
0
-68
-3
-9
-67
20
-102
4
113
24
-65
157
0
-6
24
56
-20
80
18
19
-13
46
7
12
-12
-216
14
59
-2047
13
4
-3
68
2
33
-2
-2
-19
7
-85
50
2046
-95
-16
11
17
-791
-5
-32
87
30
-200
-387
-86
-23
-10
25
33
33
0
108
-69
-5
2047
207
7
36
17
-940
8
321
428
-13
-265
-4
158
1036
-122
2
11
-46
-35
255
104
22
-417
20
185
32
16
7
2
130
125
-70
-111
53
16
-30
-65
-82
35
-65
-31
-134
28
-54
-102
-8
171
1
-83
-127
1
-18
40
-5
-24
-105
-4
-17
328
-27
-178
-65
39
320
-30
9
42
-29
-151
-24
474
23
-152
61
12
14
-92
15
-6
1
-14
-20
85
13
-756
10
-2
-12
-164
88
57
30
-217
-7
-141
0
14
11
20
-15
49
-17
-5
83
-11
-1
-44
9
65
40
3
-2
4
25
-6
91
-17
4
-85
7
496
24
6
-4
130
-1
-159
1256
927
-3
-2047
-4
480
177
69
3
3
33
-9
66
105
-2
10
6
-1
17
29
10
53
-64
40
11
-108
32
222
-30
3
-85
25
-32
84
14
-33
-13
138
7
-10
17
46
-3
24
89
-63
-156
-99
89
-86
-34
141
19
-14
-7
453
7
22
-68
8
-23
-3
24
-234
30
-70
24
-22
157
-99
26
6
-64
-163
-3
-52
6
4
-15
129
118
-155
-474
19
-28
-15
-11
81
-18
-43
-23
122
-142
-80
97
24
627
-20
-11
-41
-5
12
1
-380
-579
-71
292
-5
-830
-72
121
-436
43
2
-11
6
-16
69
-19
-31
-11
26
12
-8
7
9
9
43
175
341
-60
-11
29
-65
-21
20
0
-1
-2
8
44
858
37
18
98
784
62
56
21
455
-16
5
51
88
-82
-10
-24
26
4
-29
-1
21
-5
0
-68
-137
-2021
-37
101
-103
9
386
21
-63
34
46
73
-44
-6
13
45
0
-3
257
-125
-97
-344
51
-71
91
-59
-34
113
112
-78
387
31
86
-111
-32
1340
174
-246
-62
64
22
47
712
125
84
-134
107
-69
2047
-25
-30
-117
-17
65
-574
-59
130
358
228
57
440
-45
-21
-89
150
-37
152
68
169
121
-28
-41
8
-65
32
-33
-6
-7
87
112
8
-264
-138
19
54
-10
-62
-29
-50
-4
44
72
88
-148
-54
-14
-246
14
6
-23
36
-59
-153
-4
-57
74
89
7
-166
7
-17
-8
47
-39
96
-133
36
-61
11
104
1224
-5
145
36
-131
24
326
-122
-316
-192
-64
46
-223
-90
22
7
74
31
-243
-97
45
-21
6
-140
-1057
-19
-53
88
180
34
333
248
-33
-508
42
5
-5
-7
-7
-20
-27
2
174
-27
77
204
265
12
4
3
-11
193
30
0
34
191
-63
144
144
-6
414
175
407
-24
381
-49
-24
-115
-89
-56
223
-26
-2
-33
17
-10
-36
4
-17
28
-14
-38
-165
32
119
-21
76
79
170
-3
114
-1669
-122
185
-124
-6
44
14
-1
-1040
-33
4
29
0
-5
71
-12
-7
16
-16
-4
-42
22
20
8
-24
7
24
24
-20
4
72
-16
-45
66
-10
-13
67
-40
1
-153
-5
2
17
0
64
-285
-5
9
-9
31
17
88
-4
-7
73
9
-153
-707
10
-26
2
665
47
-16
-9
12
10
11
6
-101
6
-6
-6
32
-30
-16
12
320
62
58
-14
97
-25
-363
-261
-137
177
175
20
41
-53
-33
-46
-22
-75
-2
-41
-8
35
2
152
-52
161
47
406
96
1285
154
75
-4
-27
-17
2
88
203
65
-8
15
-111
-42
114
-16
-108
8
3
152
91
118
278
-13
-1220
-15
330
17
-7
4
-25
123
-162
-5
590
36
277
39
147
-25
-102
40
38
-55
299
-20
414
-25
212
-555
370
-5
6
-20
21
5
93
-38
2047
19
-38
121
-64
-9
27
7
-18
-87
14
19
47
3
-1
-23
-118
4
-11
7
-33
5
8
-18
-80
0
-11
-367
-73
-5
20
-3
35
-392
97
-495
-64
-103
10
-207
-418
-16
429
8
2
35
-11
1
17
-6
4
16
-133
10
57
-4
20
-100
2047
165
523
16
-6
-42
34
-52
-111
34
-7
-31
30
-189
-66
49
-119
-18
67
-52
46
-38
325
57
84
-245
401
654
103
45
-321
-5
-47
-16
-391
70
-142
-910
289
-17
132
-25
-19
6
-61
-148
-34
-25
6
315
-124
46
91
-43
-163
-48
21
20
-598
80
48
-563
-568
-38
25
79
-481
-14
-150
72
35
-11
397
-125
240
-183
34
23
-138
-20
-52
-21
119
-201
-326
-47
513
-8
10
-39
-151
-11
12
-55
-6
-20
-15
429
-6
-7
-54
13
-450
3
1
-32
1
25
-297
-113
-6
-17
42
1
-60
-97
-49
-4
-18
-360
-4
626
-56
78
-602
-71
169
24
144
-32
3
-8
22
330
13
-17
-42
41
-125
10
-29
61
476
47
-33
531
-1603
-17
107
9
-703
85
278
-138
-7
3
-54
-52
-40
-2047
10
16
-9
-78
-29
81
-92
-32
-56
22
15
-1287
-33
-113
-39
-89
-39
43
62
-107
30
64
59
-95
16
-6
6
-116
67
-103
-130
10
42
24
-13
1962
29
19
5
-252
44
11
53
57
-202
44
14
950
6
34
-14
-184
17
42
-42
27
-21
11
-20
-860
3
-10
20
-46
65
64
-552
-18
-42
-28
-18
-404
-69
-29
17
-45
-149
19
35
-6
-72
-19
0
335
5
-4
9
-244
-1
67
-242
14
-55
-4
32
-215
5
0
-2
-99
17
17
-10
11
-461
-464
-407
-994
-18
-1
5
-264
-115
347
-11
-8
-47
-46
-10
-2
-5
-9
6
-194
-16
110
-354
-32
-20
11
48
-46
-31
-302
-54
-472
2
270
9
-53
0
-82
5
-110
19
11
52
5
-34
-4
711
24
-32
-367
-24
-73
73
-152
-255
-384
59
-119
38
170
0
25
37
196
-47
-219
-52
-6
42
-13
-145
22
-18
64
12
129
-20
-104
-478
-80
25
90
-48
27
3
-84
26
17
40
-433
216
-27
80
-7
577
81
-17
174
50
-139
25
-91
204
86
299
-27
93
49
43
31
123
-44
43
-5
-1
-32
-29
372
13
-47
-4
-1
7
-58
5
-170
-22
-4
3
3
-33
58
13
-174
20
2
-34
-81
5
20
132
2
92
-64
-32
-51
-82
-980
37
450
-11
-24
-254
24
-13
17
3
10
12
-47
8
34
2
10
-16
-3
36
-437
-7
6
135
131
33
-358
1057
22
-112
-170
-3
-7
3
19
65
230
-20
-1619
-3
-57
-20
-10
1114
150
-7
21
10
-84
4
-285
-26
3
93
-51
-38
40
21
11
-75
-253
-12
537
11
-508
55
-28
-953
11
13
31
-5
-286
-7
1938
-5
20
18
59
75
79
-3
5
-99
-136
27
662
26
81
89
-142
196
120
11
-40
3
8
-55
-371
3
-4
-19
-22
-345
-5
-16
0
70
-7
-6
12
280
-47
38
42
-1
16
9
4
-31
145
22
1373
-2
61
-35
-33
-39
4
-21
16
23
29
-211
-16
25
-30
-371
160
12
-128
13
-34
653
378
-128
-81
92
-182
-94
569
-1
2
2
2
24
117
14
147
2
155
-43
252
-235
-66
4
69
-118
126
-128
265
-242
71
-10
-113
35
16
7
47
8
4
-9
-4
211
25
3
15
74
57
-91
-12
14
-17
37
11
27
-380
16
-83
39
-26
-38
119
12
-41
2
73
-211
20
154
-4
45
-25
-10
92
59
-6
91
16
-187
27
-60
93
58
8
13
125
38
7
28
-31
-65
3
-25
-10
63
-19
-24
35
15
1
17
26
136
-40
2
-61
14
91
35
-19
11
-11
-49
-11
43
-14
-8
-30
-8
8
-6
35
2
2
0
9
91
8
1
14
0
31
-22
60
1
-3
-52
-5
46
8
-60
-45
5
194
44
-4
13
162
-28
-140
1471
-26
89
-8
-26
12
2
-7
0
-16
-7
10
-36
-4
-13
1
58
-30
-42
-23
66
32
37
17
-81
-53
-30
-28
-14
-358
-14
-19
383
60
108
218
17
-30
50
-6
-941
-34
34
-28
-122
-109
31
-31
-92
-19
112
36
13
215
-60
-167
-615
32
-46
186
-16
-17
-76
-14
568
360
-66
-40
-236
197
-67
-56
-70
-40
-2
4
28
342
-89
97
-445
-32
-16
-60
-66
28
-14
102
-56
914
-11
-42
49
2047
29
96
111
24
8
-44
50
-49
-335
-16
38
-347
17
28
188
-36
348
51
15
-29
12
-3
-50
7
21
-59
-3
-1
39
34
-4
-10
19
16
65
-260
7
23
-167
4
-102
5
19
-1917
-11
60
1368
-78
267
23
-53
-25
342
-14
3
748
-11
1
427
19
53
1
-3
-4
-31
20
-26
283
484
-237
519
249
91
248
-1214
81
-26
78
0
20
126
22
12
-10
-64
39
-13
16
7
37
12
-3
27
43
-192
21
167
-74
28
230
-144
523
52
-132
-222
-153
-10
-11
53
90
36
33
32
2
-5
-52
-117
128
-44
13
-16
-47
50
65
100
-74
-10
-61
-152
-86
-79
5
-2
48
-88
386
89
71
-7
-3
-223
-47
-11
0
-45
47
-60
146
42
-128
15
19
19
203
110
-8
-92
18
439
133
142
-444
6
-17
-3
-35
-21
-10
1
-44
-1
169
-16
-18
18
-5
-2047
-40
1683
4
-11
-352
8
66
12
116
-52
556
661
151
108
-138
-16
-122
4
84
-8
31
4
-19
20
27
-8
3
-3
-2
1
52
-6
29
18
-57
68
-9
1173
48
314
-7
162
366
-203
-24
-6
40
-68
-25
66
-55
629
11
-7
-6
-13
3
11
-22
83
-6
9
29
200
-7
-18
9
191
-11
-8
-4
44
17
-50
-113
-59
6
-12
5
-60
-22
-28
-27
4
10
26
13
-1718
71
6
-32
361
-4
3
-12
69
18
-88
72
-126
53
18
8
-27
-12
-14
26
-365
3
5
-33
229
-35
5
-7
-664
14
3
-9
-30
-19
45
-68
-99
-12
18
6
67
-4
-13
-1
30
6
-24
25
-2038
1
-6
-11
7
-4
-4
2
40
-1
-38
-14
-89
5
-6
-2
-110
2
-83
51
-21
-134
37
-219
-22
3
-2
-88
-37
9
6
6
-16
11
123
32
82
-4
-10
-5
-42
12
-35
29
-240
72
-19
-64
629
-4
19
28
24
-19
16
11
34
17
10
50
14
-127
105
-59
4
5
152
-64
2047
8
-12
-621
-29
7
39
-155
-64
20
-13
10
46
117
8
-83
14
160
-13
76
19
-38
61
-9
-472
-2
-20
-2044
26
48
-244
-138
-53
-177
8
-46
93
28
-33
44
-25
210
-167
-49
-87
-153
51
-17
-1159
40
-13
936
-32
-244
-196
-19
-11
-39
-9
-50
-115
52
-10
-428
-8
-232
-1027
83
4
-256
8
-1
1
31
0
54
25
64
-44
-17
-39
25
-18
11
85
194
-7
-16
2
-196
-71
-15
-120
-13
-11
-5
-5
-114
-18
56
12
-1232
-17
-3
-33
18
3
13
-11
19
1
7
-17
-335
0
-6
17
-1
50
3
81
-18
-53
-332
-32
156
-493
-80
-87
-21
-4
-4
18
0
53
10
-6
-19
8
11
109
-30
2
10
25
-6
66
-9
-9
-46
-34
27
-52
12
-56
-20
176
29
-67
-98
838
-97
21
674
-4
10
-31
0
37
-20
89
61
-8
-16
-7
-47
-187
-13
-4
9
263
28
-99
-128
-92
-123
-22
-75
324
-18
33
7
44
-23
38
-18
-33
-13
6
-40
138
7
14
12
9
-13
-10
-78
11
-5
26
-15
77
-1
-10
-9
19
-10
11
9
-17
-188
-7
58
-121
-1
33
-5
23
5
-33
-2
-1
-15
8
-1
-37
30
2
-20
-22
3
-408
-10
-8
27
11
-97
99
-95
-6
2
18
7
10
6
-15
-45
-9
427
-1
3
16
-18
-748
39
-136
-287
-118
-226
-5
-18
-12
16
-6
4
6
-9
-13
-94
-2
12
-34
86
52
22
-2
50
-28
-3
-2
84
5
2
-180
-17
87
76
-51
49
-186
-291
-2
57
-27
-23
24
-26
62
84
10
10
-20
-14
16
104
11
1
-6
-37
-134
-79
42
36
4
46
62
117
-25
21
11
12
-46
-38
1
10
1
8
-12
-14
-3
2
-17
25
58
63
-1
-9
-1
-1
-24
-41
2
-4
-78
96
72
97
6
2
-3
7
7
52
-22
3
-27
-66
-35
-114
-1
0
15
2
-66
-73
-2
0
1
20
28
35
0
1
23
9
-125
-435
-12
-5
-14
234
21
33
0
5
-21
14
-9
-135
0
-5
2
13
-26
-16
11
-41
-63
70
77
123
-13
63
249
-215
148
197
-13
-26
66
61
32
21
-93
-12
-59
2
16
6
-21
40
-33
-311
3
3
33
-12
-129
2
-35
-50
-105
-18
-37
-722
103
-24
42
-3
-163
7
-5
-38
55
38
-22
-63
47
11
49
2
-99
-6
15
26
-192
8
6
-276
-192
17
18
77
-260
8
-70
80
-20
-12
-38
-5
-30
10
7
-9
-99
-2
-6
-7
-56
-12
155
-108
33
10
2
-26
-89
-3
-8
-49
-2
-5
16
-231
-55
-3
-20
31
-349
7
21
-2
-1
2
-70
72
19
0
5
-9
-76
-2
-4
-14
20
-112
-78
284
-33
7
-176
-49
-23
6
115
-88
2
-22
3
88
10
0
-24
22
-94
6
-11
28
-132
31
-27
781
1319
-41
160
-11
-490
20
10
-140
0
2
1
2
2
-3
2
-6
-5
-5
2
-6
0
0
-2
-1
1
2
1
5
8
2
5
2
0
-10
-11
-13
4
12
-7
-25
0
0
35
53
0
2
2
2
-2
-2
0
2
-5
3
-15
-13
5
-9
2
0
-1
-2
4
2
-89
2
-18
-16
0
3
-8
-20
2
-1
2
-2
-21
-3
1
8
0
2
-2
-2
-2
2
0
0
-5
6
-10
-11
-1
1
5
1
0
-1
1
1
-1
1
0
0
0
-3
-2
-2
-2
-3
2
5
9
6
-13
-16
-1
0
-12
-9
-1
0
-5
-10
-20
-16
21
21
0
0
1
-1
0
1
2
-2
-2
-1
4
2
-3
8
2
-12
0
2
0
-8
-10
-1
12
26
-12
0
9
0
-34
16
-5
8
-6
-5
-4
11
-3
3
-3
-8
25
22
17
-1
3
7
-65
10
1
7
-33
-16
-135
346
16
35
-13
86
55
-5
-4
-1
1
23
-86
-2
-8
5
-15
-4
314
-14
-8
4
161
14
-51
16
7
28
13
-2
197
-20
9
2
-8
-1
-149
-26
28
11
-11
-4
25
16
2
0
-1
22
-53
-5
-2
-3
-11
-4
141
-11
-1
-4
-2
7
-34
4
0
4
-2
1
-22
-1
17
8
-6
37
-170
-14
3
31
10
-6
-38
12
7
-2
24
-4
171
-31
-24
11
4
-27
-37
-7
-7
-1
-1
-1
-25
6
-3
18
0
-2
-5
-2
6
-4
8
3
-114
26
7
28
-10
16
74
-3
0
-5
1
-7
12
1
2
-135
0
-18
1
-1
4
-3
-3
2
-46
-3
-1
64
-3
-5
1
-6
49
15
-10
-1
-74
-12
-4
180
0
0
5
31
0
9
4
1
2
2
0
-52
1
-2
-2
3
-310
17
-4
-3
-14
-6
17
65
-9
-19
27
7
-46
-11
13
-5
-14
3
11
-316
3
2
0
4
-3
6
3
-1
57
11
-1
-179
0
14
0
6
-2
-4
2
2
21
4
0
2
2
6
-1
-5
14
8
-2
-5
105
18
-2
-344
0
-4
-1
33
-12
-8
-9
-3
-21
-6
7
-248
-10
24
2
9
1
-3
4
1
-25
-4
0
-63
-1
-8
-1
2
-9
-12
-4
-1
-2
-11
0
-150
-1
12
-5
-10
3
-1
3
3
4
10
0
-6
5
4
-13
5
-1
8
-9
-8
5
5
0
5
-15
-1
8
-1
-11
81
4
-13
-8
7
10
-66
353
16
-32
15
0
1
10
5
0
1
2
-3
-2
-1
-24
-26
-27
-276
1
0
4
6
1
1
1798
4
-6
-19
-4
-37
-2
-16
-1
-10
-6
8
-100
-10
4
20
-1
-4
1
2
1
2
0
3
2
-2
-29
-43
1
-1
-1
1
-3
-2
0
5
-12
3
1
-5
-5
6
7
-4
-8
11
1
-9
-25
24
-21
-36
6
-31
14
22
-9
6
-5
1
29
-13
23
20
-1
0
4
1
7
6
-2
-4
-5
-4
4
8
-1
-1
31
0
2
1
-6
12
-69
-11
4
-8
-12
16
9
-52
43
-1
-22
-7
18
17
-5
-5
-30
-4
24
39
-42
-4
0
-4
74
4
-11
-13
-345
6
17
-236
-255
0
-31
-10
-11
38
20
7
0
4
3
17
-7
-2
-3
-9
-33
17
-9
21
601
-4
6
-31
1117
-5
-19
-12
203
-19
-11
-11
73
1
-8
-1240
19
3
-18
-9
-58
-4
-1
1
3
-22
-5
-72
10
-1
0
4
19
-1
22
4
0
-7
3
67
5
0
3
0
-5
-2
-1
4
-18
-23
-8
63
-233
1
-8
6
165
-2
-3
4
54
-3
9
1166
171
-2
-17
-8
-74
19
-15
-19
-10
8
0
11
-1
-1
-7
-7
29
0
-7
0
-20
2
-7
-842
26
-2
-38
-13
20
1
-18
11
-399
8
-29
225
64
127
10
22
-8
-7
-36
-32
-16
-14
-2
9
56
-21
-15
22
-3
19
629
23
19
-24
75
9
70
-1340
81
6
3
304
544
-15
1
2
6
27
-151
34
-8
-10
-21
-11
2047
-14
-10
16
-106
17
-53
-36
9
20
0
1
-152
-11
12
12
-120
-33
93
271
30
10
4
-32
-348
-26
2
1
-1
23
-206
11
-12
0
-8
-1
1525
-10
7
1
3
3
-48
9
-3
9
1
3
-169
4
49
27
39
69
53
-203
-11
52
9
26
-2047
-39
-89
-3
-49
-65
164
10
6
39
-5
-56
-2047
-2
221
79
0
1
56
5
4
32
-8
11
-12
312
-22
-6
34
-28
-93
115
48
46
-11
42
-154
-26
0
-5
300
72
-3
15
-18
71
43
-73
-13
10
-34
23
3
-3
22
-4
2
164
-3
43
11
13
2
-54
-2
-11
49
45
10
-23
-18
-47
-113
-3
-3
22
-9
-1
10
17
-5
-84
3
15
-10
8
266
-12
-46
2
-43
5
-5
-74
-12
-55
64
-29
161
8
13
14
-23
-8
8
-258
0
57
-23
57
8
12
5
-4
-18
22
10
-173
-4
12
3
2
-3
2
8
4
12
4
-1
13
-1
25
-3
11
0
2
38
-3
194
34
47
-440
-9
46
-5
-25
-154
-22
6
-7
-117
-12
-25
-187
3
-17
-8
-8
2
5
19
-64
-8
-6
5
137
-239
4
11
6
133
15
6
17
-24
-22
-9
-107
-22
36
32
-15
9
1
194
6
24
16
-140
27
9
-14
-46
-11
20
-29
-63
3
-33
12
15
7
28
6
-9
-4
65
-21
-198
-2
84
-122
48
-36
-29
-17
29
20
-7
-9
33
-1
-21
8
12
0
0
7
39
-2
15
-54
78
-22
8
7
3
12
39
8
-7
-5
29
56
-47
-3
105
-15
-34
-20
-27
4
-36
1
39
-23
-20
8
3
2
-5
9
3
-1
13
-9
-5
-14
29
-1
1
0
9
2
4
1
-1
-4
-11
-137
-37
3
59
-68
-6
8
-4
1
39
-8
51
-46
98
0
29
-112
-2
13
-43
4
-53
0
1
19
-432
-3
-4
13
-4
-2
8
3
-8
-6
-6
3
-18
7
-57
32
-9
-20
58
10
-52
-6
35
250
6
23
-14
-34
-2
14
6
2
1
-283
-49
-6
39
1
-5
38
1
57
0
-6
-2
-5
68
22
147
-1
-211
-20
11
631
-2
1
4
-24
-22
-16
-10
3
-9
10
3
-22
-9
23
-2
-16
-33
-39
-99
20
30
39
2
-71
-4
1
-3
6
122
31
146
11
22
45
-1
-249
9
0
-1
-6
-8
-2
1
-2
-4
-97
3
-5
-4
14
-2
4
-6
-29
13
1
-11
-1
-2
-2
-1
4
0
5
62
28
-75
6
25
-80
-2
55
3
1
1
57
36
-135
-54
-12
74
-21
17
276
1
0
-2
-41
-53
665
-17
1
-22
-27
1
25
2
-1
-1
67
128
15
-268
-8
-30
38
8
-202
1
-1
3
-47
14
40
-10
-16
-408
-3
15
-172
-40
-15
-12
-260
-20
-37
54
2
-49
-43
1
209
13
-3
1
-27
293
-444
-78
0
-25
48
-120
-216
24
-7
-11
-36
-27
-164
-28
3
-2
-7
-33
-131
-4
7
0
22
39
-232
11
-9
19
-46
-30
-208
21
-12
-22
17
-76
134
-17
-9
10
19
30
-449
25
26
22
-28
27
-109
3
2
-5
1
-9
-243
17
-8
7
-26
21
100
-2
3
29
-8
37
67
7
-2
-7
-3
31
1421
69
3
-19
-15
-56
-448
-57
13
91
-177
-87
-347
119
-6
31
44
31
402
0
4
-23
45
11
50
-11
-3
98
8
-13
-84
76
3
-1
1
101
-85
82
0
10
18
7
-396
-54
29
16
16
0
12
-3
-7
87
-5
-1
-117
-16
-29
25
130
2
-32
-44
3
-46
23
-7
16
112
8
42
-28
-27
33
20
-13
24
76
-31
643
162
4
-25
152
0
-1
-4
-7
-11
1
2
-2
14
1
-69
-11
22
185
4
6
25
-2
8
11
-2047
2
-47
11
5
118
-5
-28
-21
-23
0
-100
-1960
-8
66
-20
-1
4
1
10
5
-13
1
6
-5
-3
-51
-80
0
-6
-7
-1
-1
7
-1
-11
16
0
10
-24
-2
3
-31
14
10
15
-10
125
-105
8
-83
-51
-4
-109
23
30
19
9
-5
48
45
-2
38
-21
-1
5
4
-3
24
21
0
-5
10
21
34
-12
6
119
36
-11
-1
6
11
-41
859
-2
-17
24
10
51
45
-3
-227
7
202
154
-27
-23
11
4
-21
28
43
9
-28
-14
-35
-32
-11
27
11
-1
-20
-55
1110
-19
-921
-11
-250
96
-5
-9
-14
-19
2
-10
-1
-6
-12
3
5
-16
6
0
0
2
14
3
18
-17
179
6
50
65
-20
-9
24
1
6
-21
-79
-3
167
6
-29
-37
-48
8
3
3
2
-4
10
31
-9
-4
-4
-7
16
3
3
0
3
2
-2
-3
11
5
11
-1
8
1
4
0
26
19
-136
-20
113
2
-16
-34
16
-5
-9
-2
-4
-52
385
44
-357
4
-33
50
-58
7
16
-5
26
8
20
6
11
19
-24
-51
-4
-27
-9
0
-20
-3
-232
-33
113
10
-33
-21
-22
4
4
-1
-5
-25
-29
-138
12
15
-119
-11
29
2047
-22
-15
79
-1
-22
34
186
-38
57
-4
171
-52
13
-7
1396
14
245
508
2047
-26
86
-4
-39
-32
-8
-3
-8
5
2
162
19
1
-1
-2
-47
26
9
11
-456
-16
-6
-74
-692
25
-14
4
181
-23
-22
-21
-273
-11
-84
-2047
-1237
-14
-4
-2
3
19
-32
-8
-7
-20
18
117
-11
-1
-10
2
73
9
8
-7
8
-15
7
-31
19
11
4
5
3
-5
-1
2
-11
-17
-23
-327
531
18
-18
-10
634
43
-7
23
330
0
7
1653
1365
-37
-48
-5
202
-5
-1
-50
-2
-24
-16
-58
22
31
142
-6
55
178
10
-1
-475
15
-25
-1333
-2047
-28
-27
-1
128
1
-30
1
-521
-7
3
-5
-17
-6
-1
0
-2
-80
-1
12
60
-16
22
-4
0
-9
3
10
4
7
1
4
-314
-298
7
12
-8
-1077
-12
-166
35
0
1
-2
-1
0
-8
8
2
407
-6
0
1
-32
1
-27
-37
37
16
-7
-10
-83
-4
2
-42
-22
0
-8
0
44
-11
-5
-8
-500
1
0
-17
15
12
22
4
0
53
-12
-11
325
0
-2
1
-34
0
-9
5
-1
5
-1
-2
122
-1
1
0
13
1
-7
-47
-19
-39
9
-4
-1078
3
-10
10
-40
10
-8
11
-53
78
-11
2
10
-3
-12
11
-12
-4
61
240
3
-7
-2
-6
-19
7
-1
1
-7
-1
-1
-13
62
-27
7
7
34
0
8
-8
-8
0
13
-140
-35
5
1704
-7
-60
9
7
-644
0
-8
55
8
6
1
-33
-4
20
-17
4
-42
3
-11
-5
-3
8
-20
-15
-87
32
7
-32
303
7
-59
-109
-11
-1
-3
-30
-5
-32
4
-1
-12
0
9
2
-34
-43
4
-18
-44
-10
9
18
7
-5
-28
21
18
-52
3
13
-1
-5
-12
45
70
6
-7
-23
-8
-15
0
-10
5
7
-3
11
0
-1
-7
1
-13
3
1
-25
-1
2
5
-1
-20
-4
-2
6
-55
6
-3
-7
-6
37
-5
18
22
-5
-12
-1
-50
27
-4
96
3
-34
-8
48
266
6
-3
-1
29
-16
-5
109
5
-35
13
17
244
-17
19
-5
-17
-32
10
11
25
-36
-3
-11
238
3
10
-39
45
-343
-10
-4
-13
-102
-7
34
-2
-5
211
101
-9
3
2
-3
0
98
-3
-288
2
6
40
66
-73
50
-6
-3
3
-71
-10
-136
-5
-82
-105
-91
-11
-3
3
4
6
19
11
-152
7
7
9
32
-12
8
-2
2
-11
-105
7
-831
2
-8
10
-64
-18
-6
-1
7
-12
192
-29
-522
10
-10
-16
-34
-5
-10
0
-3
15
47
-2
-551
3
-5
2
35
1
-6
1
0
9
-25
4
314
-1
1
5
42
22
-8
4
2
25
127
-30
12
-6
-18
-51
92
-47
-106
-10
-1
-13
31
18
-1138
-10
-10
-35
-20
-35
69
-11
-1
-6
-107
30
17
-9
2
64
221
-42
1
0
-1
-12
117
-15
-238
16
-17
44
116
5
240
-9
-17
-1
-7
-44
2
-10
57
8
56
10
28
0
2
-14
-9
-4
-1
-16
-10
-18
-6
17
-112
-6
-7
-131
9
3
6
36
-109
37
-18
-9
3
1
-37
-1
0
-5
5
3
-11
-4
3
4
-29
-3
-29
-3
0
-5
2
-16
2
-1
4
12
-16
-1
24
14
-8
2
-4
-9
-39
-36
-1
-4
-6
2
-56
3
-3
3
-1
10
-2
-1
3
-2
-2
0
4
2
-2
2
3
-11
8
22
4
-27
-22
2
-7
-26
16
10
-10
111
-1
-84
-9
25
-31
-4
8
-14
-6
-9
15
-91
8
-60
-12
7
-172
1
-2
2
8
84
-1
3
44
-51
-6
8
23
-4
-24
27
1
4
-2
-11
-36
-2
-4
14
-6
-189
-1767
88
-3
59
1534
14
-21
-16
37
1
3
-52
-43
7
7
-12
51
-1
-30
-8
29
-6
26
-5
-144
18
-5
-526
-140
123
-31
36
-297
-5
-11
1
30
20
-10
2
19
7
-3
3
17
-5
6
36
-26
-20
-11
-15
-21
17
-24
-14
-44
4
-5
17
-86
-6
-1
78
50
-9
-18
29
7
3
6
6
10
5
0
-6
3
2
-75
6
-8
-2
-2
-32
-17
15
-2
7
-3
0
-7
0
7
2
30
78
212
-53
-4
-47
-98
-9
-18
-22
-2
11
-10
27
-68
-14
7
5
57
33
-102
1
33
-6
23
-16
1318
-593
1
-5
-2047
-5
-32
1
8
3
-13
77
74
-117
1
10
0
18
17
48
44
5
-4
24
11
52
9
1
6
5
-12
-110
-2
11
10
7
8
18
-15
-768
-4
-10
-2
-29
7
2
5
53
19
-18
38
-239
-13
-64
-1
-55
-4
-1
-15
-12
-1
18
-16
825
-4
2
4
-15
1
20
4
-89
7
14
14
337
9
-9
-4
0
6
-3
25
74
11
-46
-25
-240
17
2
15
33
-7
-1
2
-9
8
-12
-9
2047
0
2
1
-16
0
0
-4
16
-1
13
9
2047
0
0
-2
-7
2
-20
-63
-22
-35
-3
23
-975
1
-13
-12
53
9
22
61
-115
45
43
-8
1194
-1
-9
1
-90
-3
2
13
9
5
9
7
32
10
3
0
-29
0
-8
19
-38
-7
40
26
36
-6
20
20
12
-12
30
98
-227
819
-1
-363
-8
-56
-655
-177
847
4
-15
1
-6
159
0
0
4
32
17
86
67
9
45
-38
-283
-140
-25
-274
11
-111
200
209
-11
275
-6
-3
-8
-21
1
-12
0
-26
24
32
-21
-5
9
-5
-21
-26
-1
-65
-7
-16
-98
0
-23
-81
-10
4
-44
-42
-1
-39
-7
35
-15
36
39
-137
-1
0
8
-5
2
-32
4
-35
-12
2
6
-8
3
-1
2
-13
1
13
3
37
20
-17
-21
-2
5
-7
7
-164
1
198
9
-86
75
1
-28
65
-5
-1
-105
-50
-1
-174
-12
37
-184
-39
39
48
-17
19
175
-515
3
109
3
-120
-77
-88
-730
-2
-10
-4
-41
65
1
-110
-2
-3
-2
39
29
-141
-63
-2
10
10
-18
16
-2
21
-8
-8
7
8
15
-2
-5
-11
258
-1
-14
-3
14
-9
-961
0
-31
-6
-159
-16
-5
-87
13
13
-8
128
-1
-2
-8
3
3
9
-64
5
-7
-5
-17
-8
115
-6
-14
-4
47
8
89
33
19
-7
7
11
-55
4
-12
0
7
-2
-105
-59
36
0
6
6
131
6
0
-1
3
15
-27
-6
3
-4
-6
-2
-5
2
1
-1
-1
5
8
-6
-3
7
1
7
13
5
-23
-7
-14
0
-161
25
-41
16
-6
-27
133
2
10
-4
-2
-21
267
28
19
-13
9
19
99
8
-9
3
6
4
-45
18
2
15
-4
1
-2
-4
0
-2
19
-21
10
-37
12
23
-2
34
87
-1
2
15
-13
4
21
-26
7
-77
-2
24
-11
-11
35
-15
3
-1
35
7
-4
-118
4
-42
-14
-16
-54
32
20
17
-27
39
7
-125
-8
-19
-8
-26
-1
18
0
0
-38
8
-3
-12
-1
16
1
4
40
33
8
-4
4
-3
5
-136
2
-9
16
12
-61
18
20
1
17
10
0
-202
-5
-14
22
-77
-2
12
1
-3
27
12
-2
-120
-1
-2
2
6
1
1
1
1
22
4
1
-1
-1
5
-2
3
-23
12
-5
6
-34
3
-4
-28
6
24
13
-7
-22
-15
-57
-11
42
-8
-7
-346
3
-19
-3
-26
-1
8
8
-2
-11
8
-1
-51
-1
-37
0
-4
-1
2
-13
-4
-10
-5
0
-170
1
-13
12
-22
-5
70
27
0
3
-19
-25
51
9
-19
-10
4
-24
63
26
1
15
-36
9
-93
6
-13
-6
-13
-13
-104
41
-7
-7
85
27
188
44
-2
-38
-39
-4
-35
-19
1
-6
-2
24
12
3
-4
-5
-7
-16
-66
-26
-2
6
-18
-19
25
-22
-14
-2
-30
113
82
103
-6
1
5
3
-500
-31
33
-11
1
1
42
-2
1
2
4
-2
-37
0
-15
2
-6
-16
12
-4
1
-4
4
-16
-44
4
4
12
-5
-2
-390
31
5
11
-37
6
259
-21
-18
-3
34
-63
-40
21
-1
-16
-16
30
131
18
-2
-14
87
-6
34
9
3
1
0
-3
-22
-1
-8
-10
-5
81
-58
1
-6
-17
10
-23
-355
-2
26
-24
14
0
-11
-9
2
23
8
-5
-12
-19
-6
21
15
3
37
-25
11
14
9
0
19
-96
-7
43
46
16
-60
-28
20
5
-71
-9
-55
-328
-19
-13
34
-1
-2
-10
6
-3
0
1
2
-14
-3
-26
-12
6
38
-10
-10
-3
9
2
16
-2
-12
3
-11
-12
-34
-14
-30
13
8
0
-19
215
0
17
22
-2
0
3
-3
3
1
0
-1
6
-7
-22
-19
0
1
0
1
-4
-11
2
4
-2
3
1
-1
-1
-18
-7
12
16
3
5
-24
110
11
-47
-48
-2
-34
-13
-5
15
4
-2
-21
-58
-10
72
29
0
-3
-5
1
-93
0
-2
-5
-2
-3
12
-4
-8
11
-9
-10
-13
-2
-6
-14
-76
-7
22
15
-8
-9
151
-87
-16
14
-12
-4
8
3
-1
-5
-76
3
4
-44
-163
11
0
3
-52
-1
-6
2
-7
-9
41
-2
33
-1
-12
-1
118
3
-14
-7
5
10
9
14
-2
-2
7
1
-50
4
0
0
-115
-1
36
145
-353
-2
-8
5
4
-5
-7
-9
30
3
-39
-1685
-61
-12
3
1
42
-5
-21
16
3
-15
-7
-65
6
0
4
2
-1
-2
13
4
-4
-3
7
40
-1
1
-1
3
25
3
-2
-3
68
-2
-45
488
84
-6
15
5
303
-1
7
-7
67
13
27
1007
290
-5
-18
2
102
-7
-13
-2
-3
-2
37
-94
-5
-16
-4
-4
9
8
-4
3
-83
10
-40
-923
-166
1
-8
1
15
-8
-17
-1
-34
-14
0
-3
1
4
-1
44
3
10
-1
14
-5
22
1
1
-16
21
2
644
0
10
11
31
-44
-16
-7
1
13
-27
-5
-153
5
-35
43
-3
-2
5
-1
-2
-10
16
7
119
1
7
-1
8
24
-6
-3
4
-5
19
5
-66
6
-15
-3
11
-20
-10
1
5
1
12
-2
-74
-4
-23
-3
-1
0
4
-2
0
11
22
-2
17
3
0
6
7
3
-2
-1
0
8
-6
-2
-49
-2
0
-1
-3
4
-16
-1
1
4
-31
10
939
-2
1
5
6
10
-12
2
-9
-17
-6
10
-157
1
-22
2
-31
-25
18
-1
0
-3
4
3
25
1
2
6
6
-16
-9
0
2
-8
11
-5
-66
3
-8
-6
14
-2
14
-24
9
-13
9
43
11
4
7
-173
3
4
8
-44
5
10
6
-2047
3
-1
-1
60
-1
7
29
148
18
-31
-10
-101
-2
-2
2
-76
-13
0
3
-17
14
-3
-1
-14
7
-3
2
-25
3
11
11
21
11
31
6
15
-2
-5
-5
1
2
-6
0
81
-10
25
16
-133
-5
2
2
-37
-4
2
-6
9
3
-9
-3
-71
6
1
-1
1
-1
0
-8
11
-2
6
-3
-51
-1
1
1
4
1
-2
2
3
3
11
6
1515
-1
-3
1
-12
2
1
13
-10
9
-3
-5
162
-1
-1
-3
18
3
10
9
26
-1
-4
9
10
-12
-3
2
-332
1
-7
5
65
-5
16
-10
-144
-3
7
6
-63
-1
-1
3
-1
-7
21
1
3
8
-2
5
28
-2
0
4
-1
9
12
1
7
4
4
-1
54
2
3
-4
3
8
-112
-1
0
-47
-4
-8
-60
10
1
0
-2
19
-119
2
1
4
1
-1
150
-2
1
-2
1
3
-32
0
1
15
-2
8
56
0
2
4
0
-3
-19
1
-3
18
-2
-4
-56
-1
-1
1
0
-4
42
1
2
5
1
-2
-14
0
0
1
1
2
-4
3
1
2
4
5
-22
2
0
-16
1
-3
-1
1
1
25
-1
-5
9
-2
6
14
0
10
-13
-2
2
34
-5
2
-6
-1
0
0
0
0
3
0
-1
3
1
0
5
0
0
-1
3
-5
-7
2
4
3
-3
-5
60
-6
0
1
1
1
-1
-1
-3
-3
-24
2
9
2
0
-2
1
-6
-1
3
1
-4
1
6
-8
5
3
-1
4
6
-2
1
-1
-1
18
-13
0
-5
2
-3
-2
0
1
3
1
-5
50
3
-12
-18
-1
1
-3
-3
1
2
0
0
9
-6
-4
-6
-1
1
5
2
-2
1
1
1
7
-3
-1
4
0
-2
1
-1
1
-1
2
0
1
-4
5
4
3
1
-3
-1
0
0
0
-2
137
0
2
-1
1
-1
-2
0
2
-1
-2
0
-2
-7
0
7
0
-1
3
-2
-2
5
1
5
5
1
14
21
0
0
-1
0
0
0
1
0
0
1
1
-1
-1
5
-1
0
1
-1
3
14
-9
3
1
8
-7
-1
-28
-3
-103
27
15
-6
-12
0
-17
-11
10
3
4
4
42
16
9
-6
3
9
-30
0
-10
-3
43
31
-335
14
1
1
6
4
-35
8
-2
1
7
14
-118
39
-1
1
-14
10
-29
3
-10
1
-1
-2
129
1
5
13
2
1
76
1
-13
-8
-26
1
-14
-13
-19
9
0
-17
-1339
8
2
1
-3
4
-24
-7
-4
15
-2
-8
157
-14
-2
-4
21
-3
16
-19
-4
7
4
-1
-61
3
-5
0
1
-10
-15
-5
-2
24
-2
-5
-57
5
-5
2
-4
-8
-16
2
4
14
0
6
-16
-11
-1
0
27
3
-13
7
-3
4
0
1
-44
1
5
0
-23
-4
16
-51
-10
-3
-1
7
-1
-26
-1
9
9
1
-70
-3
-2
60
-1
5
-5
-10
-62
5
-5
1
4
3
-4
-42
5
10
8
1
13
33
12
-4
104
16
-1
-51
2
-31
6
15
-2
13
-2
1
-58
6
-1
-107
2
-7
-12
2
1
-6
-4
-1
62
-2
0
-429
1
-21
-1
-4
37
-10
10
3
8
10
-11
-196
3
16
4
-24
0
-2
-1
-3
68
1
0
-400
0
5
4
5
-20
0
3
2
1
1
1
-70
-2
-11
-2
-11
-1
-11
0
4
-21
-14
0
-54
-3
-6
-3
2
0
-4
-1
1
7
-2
-2
6
9
5
3
5
-13
1
1
1
20
5
0
-78
0
-1
1
1
-10
3
-3
-2
9
-2
1
-46
0
2
-2
-6
104
0
-22
-6
2
5
-34
-164
12
5
-24
-6
25
-39
8
7
19
-40
-3
163
6
5
-2
-3
-29
266
35
9
-7
-11
-3
-155
-17
-22
32
3
-3
130
0
0
1
10
1
-40
-16
-24
-8
4
2
1
2
-1
3
-10
1
-13
3
6
-8
7
-111
184
-22
-1
9
14
6
274
4
11
-1
6
-26
12
20
-5
5
6
-8
100
15
-2
0
-4
-32
58
0
1
1
-6
4
28
-4
1
3
-1
5
49
2
-4
2
5
0
54
-6
8
-11
8
2
46
-25
-3
-6
5
-4
42
1
-1
7
14
-2
13
-4
-1
-1
0
-4
12
-18
2
3
-4
0
-1
6
0
2
13
7
34
-2
9
-10
-5
-2
11
0
-19
12
11
-1
-17
-193
-5
-21
-4
7
-13
-11
-4
-2
-1
4
51
98
-2
-5
0
2
6
1
0
5
20
1
-1
224
5
-26
-44
-2
1
4
1
-1
2
3
0
-15
-8
-3
-20
-1
2
1
-4
10
23
2
0
-4
-12
14
21
3
35
0
13
-3
-20
0
15
-311
-9
20
-31
1
-3
0
-1
-2
-4
0
4
-12
-15
2
3
2
-14
-8
5
6
10
2
25
56
-2
-8
3
0
1
1
1
1
-5
1
1
-8
-9
5
9
0
-3
1
0
1
-6
0
1
-8
1
-3
-8
-1
-14
-1
-2
0
2
2
0
187
0
-2
1
-2
-25
5
4
-1
-4
-4
12
-37
-1
11
2
-20
3
-6
-1080
-5
0
-2
-3
-9
-5
-13
2
-40
18
9
96
86
7
-12
1
49
-2
4
-12
-30
-39
1
43
-68
3
17
-5
-11
2
33
46
-66
-6
4
15
18
0
-1
-1
1
3
-6
3
0
9
-11
94
-11
0
-21
-1
143
-3
-8
-21
-87
-11
9
544
-164
4
11
6
259
-5
7
-7
2
2
-1
67
-12
-1
-18
-5
86
0
-2
14
11
-7
3
76
0
3
4
3
52
0
-1
-3
4
21
-3
-76
14
0
-17
-14
7
1
-18
1
-2
3
0
2
7
0
-13
-8
19
-2
-3
-1
19
-3
0
-19
5
1
0
1
22
-2
-10
1
66
6
-1
-15
88
-2
-3
0
19
8
-12
1
1
-2
-2
1
-10
8
1
160
1
8
5
6
-5
2
-1
-2
-2
2
10
11
6
-8
10
1
11
-9
-1
6
24
4
-6
-230
12
11
6
28
4
-4
1
-2
1
7
-5
-40
13
-9
7
8
-1
1
1
0
-13
1
2
682
-4
-2
5
-6
-1
-10
3
-2
4
3
-3
600
1
6
5
26
1
2
-1
-1
-1
8
2
428
0
-4
-3
3
1
1
0
1
0
-4
0
33
0
-3
2
-3
0
-3
0
1
-11
-7
4
-24
-4
-3
1
-8
0
0
1
-3
-6
-7
2
28
4
4
-6
-9
0
1
1
0
2
-3
-5
10
11
-2
-1
2
-5
3
-1
-1
-10
-17
4
85
-10
-1
-3
5
5
14
52
6
7
12
-37
1
1
-4
2
-2
-1
-1
16
-3
-6
-2
-1
1
4
16
4
2
-5
-10
-34
-22
-9
9
19
2
1
-3
-5
-2
5
21
-29
24
0
3
-32
1
8
-1
-10
-2
2
3
8
5
-14
-6
-332
0
1
1
0
-1
1
4
-23
7
-11
3
2047
-2
-3
1
5
0
-1
4
3
-4
7
3
-233
0
1
0
1
0
0
0
5
0
-2
0
-40
0
-4
-3
-3
3
2
5
2
-1
-6
-2
24
1
0
1
0
2
1
-1
-13
2
-9
0
-33
-2
-1
3
0
1
0
-2
-36
0
-2
0
5
0
4
2
-1
-1
-1
7
1
2
20
-3
5
0
-6
1
-6
3
-16
0
-74
10
-117
-16
-15
7
-14
-28
625
13
20
11
13
7
26
2047
10
16
-2
14
-36
29
24
7
64
36
-419
16
-12
-13
18
-12
-330
2
-6
-4
1232
11
-80
-172
9
12
-16
4
15
-12
-5
-5
2
2
161
-11
6
37
6
16
659
1
63
4
29
0
23
-6
1
8
1
1
120
-6
16
4
-10
-18
-154
6
-10
24
-2
2
714
-9
18
3
113
3
4
-18
4
4
0
-5
243
29
-8
-91
1
61
-8
2
-6
34
-9
-11
-98
-82
57
77
6
63
50
8
-3
46
-6
3
7
5
4
1
101
3
10
20
-1
5
-2
0
-98
-2
-6
-1
126
2
-2
446
9
8
-6
2
-51
45
128
8
15
5
-39
-2
-2
151
-6
-2
-22
16
-3
-5
22
9
-22
-10
7
96
-4
-22
-3
-2
1
39
22
-7
90
26
-5
-134
-2
-15
37
25
3
24
20
-2
-42
-5
-9
-204
-3
-51
-189
-1
4
-12
1
-6
105
-8
5
-650
2
7
2
16
-15
8
-21
-2
10
2
26
-45
-11
35
7
15
6
16
-10
-3
84
-4
-8
-652
-2
-15
3
7
-828
14
6
-1
26
-3
-4
-114
0
-12
11
2
0
-18
97
25
-63
-27
-62
-135
13
10
-36
2
0
-12
1117
2
-4
-4
340
-34
-19
-13
-37
2
48
6
6
2
15
1
1
-96
1
9
13
6
28
-17
22
-1
7
-7
7
-78
-3
-57
-12
-1
-18
10
22
-1
-41
-15
3
2
-23
8
-10
-1
18
-5
30
9
-60
-34
26
8
1
0
-11
10
44
-13
-44
12
-4
56
2
16
25
-13
63
-15
73
-10
-9
8
16
48
-5
8
228
-3
13
-1
8
-42
-4
0
-4
-4
-5
-5
1
0
-39
-5
4
69
-17
-2
73
-2
3
-8
5
-1
12
4
6
-34
21
1
-4
-3
10
11
-1
-5
13
-6
1
11
15
-1
10
-27
0
0
-10
1
-4
-2
-20
0
396
13
6
3
-2
-6
2
6
-28
6
-5
-89
0
2
28
0
41
-2
1
-3
11
-19
-1
-4
8
0
4
84
2
-1
73
0
2
-1
-1
-9
36
-3
28
17
-11
-2
27
2
-1
4
-32
-5
179
-4
-16
11
4
-27
-1
1
-4
-3
94
-27
-65
-5
-18
-34
16
-209
6
-3
4
123
66
-32
-114
9
23
-52
4
-65
-6
7
-3
-15
67
24
-238
3
-43
15
1
-349
-8
8
-2
-11
-5
4
12
-3
-17
6
2
-15
4
-7
2
8
-34
3
-85
1
-16
-10
6
21
-1
1
-3
14
3
11
12
3
-7
46
3
-6
0
-2
-1
3
29
-1
-143
2
10
-18
-5
204
0
1
-1
8
37
-234
-10
-4
0
38
-2
6
0
-7
-2
36
-1
-30
7
93
-3
-191
3
-14
-2
-7
0
134
55
-8
-61
1
19
-1
2
-141
0
1
0
9
-86
-14
-110
2
49
-7
6
154
-1
-3
-2
-20
109
-116
-25
-6
6
-10
-12
-234
-14
10
-4
-44
84
101
30
-7
11
54
-19
-108
93
0
-18
-15
24
692
-26
3
7
-5
-33
-213
-2
-43
42
-10
-17
-226
-7
-1
10
1
-3
-97
33
-12
-1
-9
56
377
-3
0
11
4
3
-257
10
25
-17
1
191
-399
-4
4
-1
12
15
335
27
0
8
-31
21
252
-15
-2
8
-4
-6
-462
-18
4
0
25
-26
173
1
8
17
-19
7
12
-23
-7
-1
0
-14
195
1
-10
2047
2
-10
-66
-11
10
-44
87
-4
-1
-11
-4
-355
14
3
1
21
7
-37
-2047
18
25
-2
0
-4
-3
1
-73
-5
6
-2
-15
87
-178
10
-7
-1
-1
4
-156
59
12
-7
-32
5
116
1
10
-4
-8
-4
18
-2047
-10
-8
-41
5
-38
-11
0
22
-35
12
-1857
-18
4
18
-26
-1
26
-2
-15
-10
-7
8
3
2047
7
-9
-37
3
-34
-4
1
12
-15
7
11
17
-8
-3
19
0
8
-12
-5
20
-17
0
-5
-19
-4
29
-27
-3
-1
18
-13
-20
-28
-2
22
128
0
-53
26
0
8
-6
-2
6
13
0
2
-28
-13
-3
-32
-45
-709
-19
-19
6
8
-15
-28
2047
-3
29
-28
2
0
-6
-2
12
-2
0
10
4
-12
22
-52
3
3
1
0
-46
-8
0
10
4
-8
-107
803
2
57
-5
2
-5
-2
9
9
2047
-1
17
-20
3
83
2
-7
7
9
1
-84
157
-5
-18
30
11
23
-129
-9
38
2
-13
-6
6
2
1
3
1
-13
130
16
122
0
246
28
4
-1
-24
7
-4
120
-48
33
19
-18
-5
-23
73
5
4
-4
-2
15
-2047
28
49
-1
-4
8
-10
6
-5
0
5
-37
10
1
12
1
-12
25
-22
-3
-4
-2
0
8
-17
8
7
-2
-9
-31
25
1
-5
-2
2
15
1
-14
13
-4
12
-13
28
-1
7
0
2
-8
340
7
-149
1
-32
-2
1
-3
-2
-9
-35
5
-4
-25
26
170
-32
-15
7
48
11
1
-20
9
-12
-21
5
-6
-52
-5
33
-1
-1
-1
2
-8
-118
-1
-19
-2
-20
-10
-5
3
0
-1
2
-12
-34
-3
-250
6
-96
22
9
2
0
1
-213
1
18
-1388
-87
-4
-9
-2
-10
-35
-12
5
153
-5
34
97
33
19
-9
0
-29
3
-14
8
-105
-41
21
208
-316
-10
25
-11
-74
17
37
50
-389
-6
-50
174
91
-9
11
-5
0
-13
26
8
6
-17
30
135
-6
0
-21
3
410
19
-6
-32
12
1
22
-199
85
9
-8
2
222
-21
5
9
-5
8
-8
48
-22
9
-24
-2
236
-9
1
15
1408
7
1
74
1527
-9
-10
-4
-5
-8
9
1
-13
42
-17
49
-7
-17
-45
-16
-46
-62
-40
-6
-7
1
34
43
-9
-72
-16
-8
240
123
6
-1
-183
1
7
-21
-469
1
-3
0
18
-4
-5
4
-81
13
-7
-88
2047
5
-21
-5
75
45
3
8
15
12
-6
7
-10
-196
2
-11
1
-21
2
-18
-2
-2
14
-3
0
-114
-7
7
-31
24
-2
7
1
25
48
-10
6
1528
2
3
6
-42
1
-76
43
33
42
-7
4
64
0
73
-10
-37
1
-26
5
0
-7
2
-5
-2047
1
-3
0
38
-2
37
19
-3
7
0
-2
484
1
-1
1
-3
-1
-11
-15
1
-2
11
-10
2047
0
-2
-1
33
-1
-15
24
-68
-4
0
0
-79
5
116
17
-1
-6
-1
-5
3
-57
15
7
297
-1
0
0
9
6
30
6
2
-7
4
-4
47
-1
0
4
63
-7
6
5
13
-1
1
0
-4
1
-13
2
1
1
-2
36
-22
-13
8
5
-25
-1
-43
9
6
-3
1
-11
0
2
-18
-16
-13
-4
-11
7
-2
2
-9
-29
16
18
47
8
22
-1
8
-151
5
2
6
6
-29
0
-11
13
10
-7
-15
-67
0
1
8
-35
41
2
-30
24
-1
-2
-8
-72
0
23
14
-21
1
-1
4
-1
5
0
-12
-20
1
-2
4
51
11
1
-34
2
16
7
26
-39
2
-4
2
-11
-4
0
-9
-3
-21
2
16
6
0
-2
-1
-2
25
-12
-7
-5
-1
-4
-8
39
1
-5
-3
-56
-26
1
-54
2
-56
2
4
-38
1
10
2
-51
-1
-2
10
-7
-9
6
3
0
-10
9
-1
0
-7
1
-1
38
-2
0
-1
25
0
5
0
-4
-58
5
29
18
-13
4
-22
-189
-6
13
15
-5
-43
0
1
-9
1
4
148
-5
9
-6
-17
11
27
-7
2
-5
-35
-33
-49
-2
-13
-9
24
2
-1
5
7
41
19
-5
-770
23
2
9
11
2
9
0
-3
-1
15
22
17
-32
-10
19
2
-2
1
0
0
-4
-61
8
1043
-5
-7
8
-20
-9
45
3
1
-7
-12
-1
1088
4
10
-3
-15
1
18
3
1
0
-16
-7
1111
2
-10
14
19
-18
14
-3
-1
5
-25
-6
70
-13
-9
4
6
-9
64
2
2
-21
5
-2
247
1
-1
-60
-159
-9
203
5
3
-12
-49
-3
54
-1
-11
-29
0
-6
5
0
-2
0
1
4
6
15
-3
-2
-2
-36
5
-3
4
-7
-5
18
-29
17
-13
25
17
17
3
-2
-35
12
1
3
3
-1
-14
1
-1
11
-13
-3
32
28
-10
-11
-1
-39
-63
-4
-22
-3
-8
0
5
4
-3
5
-20
61
13
4
6
8
-2
5
-40
13
-10
-2
-2
-39
5
8
8
3
-6
0
37
-6
2
2
0
27
7
7
0
-5
1
-1
-22
6
1
-2
1
5
-1
-1
0
6
-5
3
31
0
3
5
-5
43
-1
-4
0
-2
4
-4
6
-23
2
-2
-2
9
11
-22
0
18
-35
-3
-11
1
-13
5
5
-32
11
-84
14
6
-23
3
-250
-5
2
-7
-1
9
7
-10
-10
0
3
0
-1
2
1
0
1
8
-3
8
-3
2
-10
1
-4
-14
-1
1
2
11
8
1
9
11
-58
37
-7
16
-6
-8
13
-34
-7
1
-85
3
-14
-5
-26
-18
-14
-4
15
-126
-3
-3
39
3
-128
-22
-38
-513
-37
-7
-11
22
-1
37
10
4
-9
-43
-55
-16
26
2
-3
20
2
11
-217
5
-12
-11
-7
305
-18
0
8
15
2
8
-1
-5
-99
-3
3
-104
-12
-2
-13
5
-3
28
27
0
-67
0
1
-85
15
-3
-1
-1
2
20
-3
1
-3
8
5
-20
-2
-1
-5
23
9
-8
48
-14
16
-2
2
148
-41
-5
-2
6
0
-16
-1
-31
-49
4
8
4
-27
-2
68
22
-25
-7
-1
1
-10
-79
1
-15
1
5
0
1
-1
2
59
21
-9
60
-2
4
-59
-2
8
117
-7
-7
-52
5
-1
-42
-50
11
0
-9
21
0
0
18
0
2
5
-22
80
-45
4
978
-29
16
-36
-291
-2
5
11
-8
18
36
5
-10
-26
0
-90
2
-39
5
-3
12
-37
-31
4
-8
5
-12
-63
3
44
0
17
31
-18
-3
1
2
0
2
-7
-3
-35
2
0
6
-12
30
2
-4
3
2
-30
5
-32
-1
15
24
28
-15
-5
-1
-9
0
-49
4
-4
1
3
9
2
4
1
3
-12
7
2
-15
15
-44
-15
113
143
19
2
1
-46
-2
38
3
0
-4
5
-27
-17
-6
-8
12
21
9
-29
-2
1
-1
2
-1
-6
3
0
-3
3
-1
-2
6
3
-1
-1
-51
-16
-94
1
95
-61
9
1
-16
27
-5
-4
1
-9
0
-34
5
18
28
17
4
-44
21
8
79
8
-2
-413
5
-6
86
192
-17
-47
-1
2
-11
-3
-7
65
15
-44
-22
-7
-10
-17
-14
4
12
29
4
50
1
3
-20
-7
2
-8
1
0
-17
20
-1
-14
3
8
32
0
5
4
-4
3
4
-20
0
-40
1
4
16
18
28
4
3
-3
-9
-6
-1
-4
5
-1
8
12
-12
-8
-15
8
6
-11
4
-13
6
10
-60
-36
24
99
-7
-2
15
-1273
2
-3
-8
-30
-18
-25
-157
-3
-5
0
20
74
-1
-3
2
-27
1
-47
106
-6
0
-2
2
-1
-2
9
3
3
19
16
-5
-22
-2
2
-4
19
1
123
-4
-12
21
39
-14
-22
12
-5
5
1
-40
-4
2
24
0
25
-5
-3
71
-5
-3
3
-3
-13
-1
65
1
-17
1
-2
11
14
10
-2
22
19
2
-65
2
-10
4
-17
-2
4
12
-3
-29
2
1
-53
0
-12
-3
-1
-1
-5
0
1
28
-1
1
-410
0
18
-1
-6
-1
0
-3
-1
2
-4
4
-104
1
-5
-1
-1
-2
5
-2
-1
29
-7
-1
-284
0
8
2
0
-67
-3
1
0
4
4
-4
-81
-1
1
-8
-6
2
-15
-5
2
-30
-22
-3
-86
-1
12
-3
-2
2
-7
-6
0
3
0
-9
-130
-2
-2
3
0
-8
-2
0
0
13
5
0
-55
1
5
-1
-2
9
-15
-8
-6
40
0
1
-16
0
3
5
2
0
17
10
-11
-11
14
1
7
-279
-2
-16
5
-9
44
-2
1
1
3
0
68
-52
6
-1
-3
-1
17
7
6
0
2
2
3
188
-2
-27
-42
3
2
-2
-1
5
0
-1
0
11
-8
-4
-10
-1
-1
-10
-6
1
-5
-3
1
-3
-8
14
10
-1
-2
4
-5
-4
-4
0
5
12
-5
14
-1
0
-4
-7
-5
0
3
0
0
25
-12
2
6
0
-57
6
2
6
9
2
-38
90
-3
6
6
-2
1
0
2
8
12
0
0
-5
-10
18
5
1
5
-1
2
6
3
-1
0
4
-3
-5
-5
-3
-7
-1
-2
-1
3
-1
-1
51
0
3
4
-7
11
0
-1
-3
-3
1
12
82
1
11
8
-56
-1
18
-892
-21
-7
8
-2
-57
-4
-7
7
-99
-14
26
73
-86
-4
4
1
-10
-5
0
7
-33
-33
42
-113
-72
-3
13
-16
33
-8
30
28
-8
2
-32
-40
-34
1
1
0
7
1
7
13
6
3
-6
72
-9
2
-9
2
81
1
-8
-13
3
-2
9
72
-5
1
-6
-2
67
0
4
2
8
4
-9
80
1
2
-11
-4
56
2
5
4
119
1
-23
81
156
-1
2
-3
42
16
5
-3
2
24
-2
-45
-2
-1
-17
-11
5
1
-16
-5
-4
4
-4
12
-8
2
-7
-5
26
3
1
-3
17
0
-4
-12
27
-1
-2
0
1
2
-1
3
-40
-2
9
13
53
-1
-5
1
-7
-1
-14
9
12
-13
-20
-24
91
-41
198
-126
4
-66
129
-3
-3
4
0
-13
137
9
37
-80
15
0
137
9
8
-8
-1
-6
98
12
-18
-150
-4
29
-168
3
-6
-3
17
-10
17
-7
8
-219
-6
-33
-418
-19
2
12
-9
-11
-10
13
-22
-23
16
-24
-242
-19
-9
8
-5
36
-100
17
-11
-92
-3
7
324
21
29
14
-14
-27
-65
21
23
-151
2
-44
134
27
17
12
-10
20
-1
18
11
-63
-2
-18
11
-8
-4
-4
2
2
32
13
-14
-106
14
-18
52
-3
-1
7
4
26
-26
1
1
-211
22
42
403
-22
5
-17
-1
16
-44
4
-5
-153
9
-10
-74
17
-3
-16
26
-16
-36
1
3
-42
24
-7
-215
8
-20
-4
-29
-23
106
-27
-303
-86
5
-334
44
41
-18
-14
11
-18
83
8
-90
-89
1
-125
154
29
11
9
1
-3
-7
14
6
-199
-12
37
26
49
-24
-4
-5
-27
141
-116
-107
-297
7
-78
-88
-24
-10
8
13
61
-82
-58
-23
-50
4
-11
210
49
18
-6
15
31
-289
-252
9
-106
-26
2
-141
52
3
-5
6
-2
90
52
1
-149
0
-9
-152
18
-6
-6
-3
-4
17
30
-22
-89
4
-77
102
13
1
10
-72
19
-4
12
10
-129
-16
0
-35
10
22
27
95
14
-66
11
-5
-128
-10
32
-213
-27
-13
2
60
-25
34
104
-67
-168
-11
-77
14
-36
-12
-1
33
70
-360
-27
-32
-36
-4
-70
14
-428
440
-25
-137
-64
27
45
-42
549
17
128
57
-3
-19
-186
-11
-12
15
71
-11
309
-77
65
-56
-9
23
34
-8
-8
19
-13
-55
2
-1
74
57
0
-128
-102
-166
-19
37
10
3
961
41
-30
201
-19
-21
-32
-14
-19
-28
-2
-24
235
-39
51
-55
-10
-74
548
8
-10
-9
9
-2
238
-2
38
-121
19
-126
-49
-12
1
-32
-1
24
209
-12
139
-218
8
-553
11
-234
9
28
45
107
305
39
111
-40
10
98
-44
4
3
-3
7
-15
-170
7
88
-153
3
-35
1032
26
-36
2
-7
2
34
-48
194
72
-6
-63
-335
48
16
-3
-47
-1
0
64
39
180
-16
-17
628
-37
13
-30
-1
-11
231
-40
-60
-95
-13
7
48
-63
105
26
47
-4
1
-78
-16
64
36
-5
15
45
48
2
43
21
9
-16
-53
84
105
1
2
-28
-3
15
120
-1
1
-31
-102
-29
-51
-13
-61
-28
68
59
132
-10
21
106
-49
-73
-81
-4
-33
3
2
15
-27
20
46
-18
38
-37
-29
-20
-71
17
-9
-5
23
-13
23
25
-87
4
-67
32
62
-3
12
20
197
-26
-24
33
-144
57
49
-5
5
103
37
41
-5
-5
31
-2
-19
12
34
17
5
14
-6
14
21
-7
-7
34
-25
13
45
-22
-55
-30
-14
1
48
13
-8
237
-7
-40
10
-30
-57
-56
17
21
-19
-9
-55
-8
13
-23
-43
16
10
1
-7
-36
-179
-21
19
-197
85
-33
-5
31
-16
-19
9
-14
-206
-15
179
9
165
29
-13
-3
-10
-8
-12
-6
6
-32
305
47
13
21
-51
6
-5
-2
24
-89
-26
15
323
19
64
24
-94
16
37
12
19
-34
-126
6
-110
-4
6
-5
-84
3
17
-3
-8
-9
70
-3
-206
1
13
-48
-43
0
-13
-27
1
2
-65
72
47
-23
10
31
-3
26
-2
2
-17
-133
-38
16
-185
-15
26
48
-118
17
-21
-5
10
-84
1
22
49
2
20
-20
-158
-2
-11
-18
2
-35
5
-1
-209
-4
-6
8
-43
-11
18
-14
6
13
-200
-18
-204
30
27
29
-7
-1
-14
19
0
-28
-101
-8
-725
-8
24
-18
53
-67
14
-5
-10
49
140
-2
-88
-25
0
42
89
32
-13
-331
-76
19
-469
451
-179
28
892
-311
38
-53
-27
-967
67
-11
-20
184
-111
10
421
-413
90
33
-33
0
-55
18
102
1
-170
7
37
-655
98
-89
29
-328
-1
98
484
-203
-243
-30
-70
718
7
-146
-3
-11
-91
228
45
47
-60
12
74
-1116
0
-66
12
29
-15
428
-736
-16
-73
4
-52
-497
-19
147
-11
-132
-163
-76
-852
-34
-230
-7
-108
246
54
18
-19
38
-50
175
-64
168
-19
10
-120
125
44
-26
-11
200
1
30
443
39
-154
-2
7
1298
9
-13
7
-1138
8
287
-279
-50
-231
-3
64
-243
145
-84
26
89
5
-181
441
36
-149
0
-138
1003
-8
114
0
63
-12
122
0
35
-110
-13
59
-818
-109
-49
90
-33
3
-259
-132
-4
600
-51
-59
-102
-51
-98
-68
55
-4
-143
-82
2
237
21
-166
-57
18
-3
-59
-49
20
-156
-110
-7
230
24
-99
-98
23
-158
168
-1
-13
25
47
-30
196
0
-172
-81
11
-4
-131
89
50
86
18
-28
-63
-50
-1
73
21
26
70
21
25
336
84
3
-264
-32
58
76
0
-351
-60
-61
6
-457
-211
-16
616
-216
-166
20
73
-1
72
-26
15
-57
12
15
237
9
-225
105
-15
179
-24
29
17
-70
-44
9
41
41
-41
11
-51
47
-192
25
14
165
-16
20
-23
-27
-6
78
10
25
40
31
0
43
53
-20
13
-34
46
4
13
-7
-82
93
-58
421
213
-8
-666
-32
229
156
33
38
51
-113
6
50
-96
-34
-7
-254
-29
162
-18
-22
49
-4
42
-67
-6
-38
-4
-328
-29
-90
-41
-16
-30
-58
8
0
-19
69
8
-28
-8
33
25
-89
-36
101
-13
221
-150
-17
-25
-60
16
187
28
-68
155
-15
-27
195
2
30
-59
-11
5
-35
52
-16
27
56
0
-76
79
-105
22
55
-15
-19
-51
20
16
425
42
-91
-2
-266
-162
-4
48
128
3
82
-61
9
-24
2047
60
-26
-347
36
-10
-92
25
20
39
-28
-4
-56
-54
172
-50
-3
-2
2
19
19
-4
68
-9
64
-14
-75
-76
-213
7
-47
-29
-71
46
-109
-20
-69
116
84
23
78
-15
37
-16
-180
10
-68
-5
-72
-27
130
-58
277
-75
-133
46
341
-117
472
12
238
-209
-13
-255
-8
-89
13
-103
-810
-85
957
-19
-232
-165
24
-750
20
-60
-10
-82
-59
-77
55
-2
-1
-48
-15
-23
1
-66
11
-62
-305
-116
347
27
366
-137
-52
564
-22
9
1
133
-48
-1
43
-23
-61
-40
2
-30
0
-6
4
68
124
61
21
-4
-175
113
40
-16
40
27
-15
220
-69
-278
60
0
63
-169
-21
92
28
-149
21
15
-96
-208
-89
-40
-46
-344
5
13
-12
-120
2
-10
51
0
-107
-5
-47
-33
13
-111
5
-11
-25
37
-2047
47
250
-17
-65
38
21
-1274
-4
-4
-2
-43
92
73
80
13
-85
35
12
-81
-9
43
12
49
-105
233
176
36
-173
83
90
-181
46
93
-9
156
584
689
101
-48
154
-582
-18
76
459
180
76
48
40
684
0
3
52
-66
-6
36
-37
111
-286
10
-2
-99
-53
-2
-51
25
66
246
-111
86
82
76
-182
72
-208
-38
-29
55
-14
1016
190
76
224
8
79
937
-92
-7
15
28
92
467
75
114
-134
80
72
846
-26
-11
-30
16
101
-225
90
-72
30
-13
-112
1071
-72
27
-148
-4
-105
-94
118
314
116
24
1288
2
-596
-19
32
252
539
-1112
119
208
-161
128
51
447
26
4
-1
-48
16
-257
-28
125
-63
-42
31
-58
-42
22
18
-4
44
-12
-1899
44
-306
-29
-70
223
-4
27
35
56
-65
29
6
43
55
-24
107
1237
-83
11
14
-52
67
-17
73
-68
99
-138
-11
-146
-208
-174
6
1124
-20
403
-109
-141
-87
-21
-14
-54
-51
-80
66
105
0
74
63
-71
67
52
1
11
-27
2
-17
125
-13
20
3
-86
-118
-163
-16
-42
22
91
89
223
-22
-265
-447
-37
-135
-6
-7
10
76
-12
74
-56
-14
-29
-19
49
307
409
2
34
28
-2
83
19
6
86
-24
82
166
133
-60
-239
12
-9
41
218
32
835
157
-163
83
46
-10
-48
212
-74
112
-648
12
14
-4
15
1
195
1
112
14
-46
-20
5
-6
-336
-419
-15
173
169
3
100
-21
16
22
271
19
-71
-184
40
273
307
-2
38
-6
-13
-5
-27
-5
-183
62
20
-98
-67
-14
-9
12
-3
-133
-172
-22
-17
125
138
214
83
0
-277
309
129
308
26
17
-21
176
53
106
17
4
35
1012
-8
-591
-28
-61
100
72
-17
1
-26
-11
146
-6
78
-36
-21
82
-10
6
11
-53
3
21
22
691
4
-202
21
-64
47
22
-7
-54
-1
-17
-41
-21
-50
38
-17
-127
-1
-50
3
0
8
10
-33
14
-53
534
13
-568
67
-34
-7
11
-26
-33
103
214
106
-138
-10
-112
27
262
-147
-82
-12
21
-434
-97
45
5
10
-18
66
8
-57
-159
-4
-6
58
-323
2
193
8
25
6
60
-2
-9
7
-32
414
402
19
651
-4
47
1
144
-24
-1
-3
-13
-72
-27
-92
-72
32
-180
-66
-72
7
11
6
0
-155
52
-199
-1684
-8
-185
-155
-241
6
79
-11
95
111
-30
568
-2047
3
189
55
-363
273
-36
-65
556
-59
265
854
-1869
-20
60
70
-329
-33
14
16
11
-21
-32
-325
48
46
170
56
-274
-29
19
57
745
-25
55
663
2047
24
3
25
-571
-4
72
123
13
-14
141
-194
65
-54
-59
38
-72
-58
-62
-7
-66
-47
-84
-106
-219
33
-121
-27
-106
-82
-14
17
364
42
48
-494
305
-64
254
12
-452
1934
-3
11
14
74
-14
1618
109
-10
141
-37
-205
2
138
387
-344
-20
1
-450
-393
-21
81
26
-296
-70
-8
-24
-276
-315
171
-543
-1226
13
13
4
-623
139
830
-169
-41
-30
-23
494
29
53
-23
18
-216
-73
-32
-14
-39
-42
-159
-112
114
56
-226
43
-120
-70
6
37
4
112
-8
398
-11
162
-11
-206
-1320
-12
31
28
-17
-50
39
-129
91
13
7
-204
2047
8
8
-111
12
-11
0
-18
-12
108
3
-239
67
6
33
9
-63
71
-29
49
-7
48
-10
-324
-231
-7
44
64
84
43
22
-4
8
22
12
87
-40
3
-11
13
-95
18
32
-9
-49
-98
60
-71
431
-2
-3
-41
-66
54
38
1222
19
205
-46
-296
-138
-12
65
-214
-28
-11
17
39
33
177
0
19
38
-9
88
-11
-4
63
6
-220
10
33
-4
-180
-206
14
6
-19
1
-28
43
365
-59
-4
0
-319
-884
19
-75
125
-7
74
-9
-187
15
-83
-9
-157
-413
-35
-11
38
25
25
64
-369
130
-217
-81
84
-706
21
-165
48
54
-13
-7
6
-108
-188
18
-1080
-129
114
72
79
-71
12
-6
-10
-41
-51
14
-1111
278
-9
69
-84
-3
99
-6
15
-76
-68
53
812
-5
81
91
-120
-31
-53
-7
0
-6
-193
10
601
-12
115
-50
-135
-47
-74
-9
-8
16
-29
-4
457
-18
-32
-86
-21
-275
-14
3
-5
26
76
-29
-53
27
-26
6
30
-46
-41
-30
-9
-154
-202
81
540
-51
-47
35
-22
-7
-14
-3
2
-84
98
82
481
-17
-85
-13
-177
43
3
17
1
-45
-31
14
-564
12
-14
76
-48
119
-12
10
4
-29
-4
-102
-573
495
93
-9
-238
-366
-57
20
-14
41
10
-9
-889
-1
23
30
0
-1060
-12
-26
-92
83
75
31
372
32
-62
53
96
1
-81
85
269
-555
17
-215
-466
-64
228
16
-40
-7
-51
-46
-298
-545
0
-84
48
30
201
88
-76
26
-79
-168
-32
87
3
62
-53
15
263
23
-11
6
31
46
-59
223
16
138
-7
-45
296
-73
87
-25
45
19
-51
40
10
19
-27
26
107
10
-3
-23
67
40
-86
-31
-34
-274
42
148
121
1
-17
-13
-133
-174
128
-684
20
-175
-1330
68
330
1
60
48
-63
-180
-144
-42
29
-56
67
0
88
-5
40
-13
-30
-2
45
89
1
211
79
-13
229
88
-12
-22
-26
-89
-161
-227
12
97
-124
6
402
-112
-231
-6
51
2
-38
276
-32
113
19
32
178
46
-4
3
162
83
14
801
-61
23
-109
465
151
3
-23
12
-66
-52
36
-118
106
81
20
6
7
-22
21
16
-41
-217
-12
74
-1
-210
-22
38
62
-70
-10
14
-36
-24
21
15
-30
2047
67
11
9
-12
-3
-3
-12
208
7
-95
129
321
17
-6
-31
-5
10
13
9
-96
-12
2
-2
-2047
35
-11
23
12
1
11
3
227
-38
-96
0
894
9
7
23
-66
-14
50
-14
-65
12
13
34
-89
-42
-6
36
110
48
29
-6
16
16
-1212
-291
247
3
12
2
67
33
8
-19
33
-21
-1
-14
-1675
-19
20
-28
15
-22
9
-27
-211
22
61
-73
-79
-10
0
88
92
-18
15
0
17
-20
25
8
2047
12
13
-20
3
-1
32
35
-24
-55
-38
8
-439
42
25
48
-189
18
-11
-5
-81
-127
-13
26
-15
152
-1376
98
-222
-65
-23
6
-73
64
12
-656
-49
194
1875
-157
-68
-167
14
-25
-19
127
6
7
1
174
82
7
-74
-12
-13
-7
148
-36
-1
-180
37
83
-249
-17
-1
159
-47
-6
-50
-95
0
-151
-37
-61
-2
50
35
-14
-23
46
44
2
1
-2047
46
-173
-133
378
29
26
36
193
58
194
15
27
-68
258
369
2047
-1511
141
-2
2
9
74
23
-61
-25
41
-40
48
14
-9
-5
-50
-49
68
2
-62
-39
3
126
-254
-111
-115
26
14
10
87
12
314
-40
195
-1625
-258
-78
95
-18
-42
192
-29
-4
-1273
8
-42
26
124
25
-79
-579
0
1139
-43
-12
-2047
3
-349
-24
-71
-37
4
15
-19
-175
-7
312
286
141
-169
-16
573
-411
4
47
0
504
8
248
-295
-90
70
19
-216
249
6
6
8
-15
-21
86
29
-14
-136
2
11
-224
8
-10
2
-47
-5
36
52
-87
-208
5
-90
-316
-19
-11
1
18
-4
19
-5
-11
-20
8
-46
168
-12
39
-10
4
1
-102
-120
25
-84
5
-16
-56
-8
408
-25
-3
22
122
-647
-44
-249
-2
-91
-134
24
30
-12
29
-11
56
-2
17
-39
-7
-184
142
-8
54
-8
-39
-20
-42
120
-4
-176
-8
-14
-1101
-7
-44
-1
755
39
-144
983
88
-144
19
121
581
-3
-6
15
34
-15
-6
109
-7
-76
1
-46
-260
25
-19
14
21
48
-159
33
-15
-85
23
-58
39
27
-44
-22
39
-1
-115
-115
-2
342
5
-201
-14
-48
55
-109
-14
15
-83
-85
19
184
-8
-10
13
3
-3
-19
27
14
-95
-84
-11
227
23
-59
-20
18
-13
7
-10
17
39
-18
3
85
-2
-29
-73
0
-7
-40
4
33
26
-5
19
-51
15
19
-1
-18
-21
30
-28
-6
87
65
-4
-188
-3
58
-8
2
351
8
-121
11
-265
-158
11
597
27
-151
-117
-35
8
51
-6
5
-77
-97
0
320
0
-192
111
-40
-179
27
-37
-21
-37
20
19
25
4
-38
-38
33
-46
224
-35
-28
-12
-107
13
-171
1
41
19
33
-18
38
44
2
72
6
1
-36
-10
3
-15
-6
8
17
7
-4
183
149
-12
-427
-10
111
-1
13
69
-154
-114
-6
-348
-232
-18
154
20
-49
5
-11
-44
33
-55
-21
49
-76
66
-338
5
-37
-23
13
9
-57
10
28
23
-103
2
-42
-2
-33
8
-14
-27
-40
63
20
192
7
-51
31
-12
-3
16
22
-14
-13
-27
-27
35
-32
-14
1
9
-23
8
-22
-19
36
-30
6
21
82
86
29
8
10
-5
-164
37
-172
-32
-8
135
-200
40
-62
10
-172
32
-60
-47
-160
-42
-62
34
-392
-8
5
0
-76
17
8
19
-11
-80
-14
-22
-44
19
94
7
-15
0
-205
-99
81
84
-25
1625
173
82
-1667
8
45
-11
-79
-20
48
-43
6
-28
62
5
38
-4
8
6
-12
-65
113
1
10
93
156
0
-51
0
57
11
50
607
832
175
-43
53
514
-95
21
90
-18
100
-20
119
-51
-28
-33
-12
-3
-16
337
33
26
76
-55
-27
102
-16
-1
53
-5
-26
73
-23
75
113
-16
-130
-42
-50
-30
3
-32
-4
883
-4
77
142
7
17
-89
-44
-12
-9
-12
22
271
2
27
10
-29
12
-181
13
13
-12
12
12
24
14
35
-59
7
30
299
27
-39
-5
60
-30
-335
-31
163
-79
-66
-728
-4
253
8
-9
-171
-264
-211
26
151
-122
103
30
104
9
2
11
30
-51
-453
-6
56
-206
10
-20
-507
-6
28
-6
-27
-10
170
-46
123
-651
-50
-82
-107
-10
0
22
36
-4
71
32
29
37
10
-52
19
-55
13
-3
28
-22
-113
10
55
-47
-13
22
-39
277
-24
-2
-658
-6
-121
-150
-127
96
58
11
16
27
57
25
149
-5
47
-208
-28
160
163
3
-14
-13
4
34
105
-1
7
9
-54
-21
29
-11
-22
7
29
25
155
3
21
190
-11
-89
-63
-4
-6
-36
3
6
0
1
5
-16
56
17
-41
-3
-3
4
3
-44
-23
6
-72
-26
20
-60
42
32
93
-7
27
51
235
-26
855
-112
-220
-29
110
6
-34
-91
15
42
12
-4
-21
12
-36
85
146
-36
-124
-46
38
-31
-51
-10
-233
336
-38
96
194
0
-99
-48
-29
-33
-30
23
-64
2
33
191
263
-9
-30
15
10
38
-20
-5
-21
13
35
-32
12
24
1
7
0
25
-88
-9
4
-28
61
-113
61
-21
71
60
135
82
2
-1
117
302
10
-75
24
-5
32
-972
4
-760
-12
52
22
43
-7
-66
-36
14
26
-3
23
0
5
58
-27
47
-6
-7
0
-6
46
334
-19
202
42
24
-67
-38
6
4
11
11
-8
-20
-21
29
5
-20
-23
1
0
-9
0
17
-41
-44
-66
-87
-18
-259
-2
-74
10
-9
-15
68
153
-415
138
-7
-5
1180
-70
281
-25
-137
3
12
76
-137
96
-54
-11
-8
22
-27
-11
-1
-20
5
13
61
58
-147
-7
-168
9
28
-8
-20
10
40
125
-461
12
-1674
-11
62
-251
381
-37
17
34
-10
13
120
-26
75
7
11
-33
-5
-16
-12
-1
-1
-103
150
-113
102
-2
30
-94
-135
7
46
-1
230
30
47
408
-507
-21
142
17
-361
-20
1
-15
-438
79
161
162
-430
-45
46
25
63
-8
-73
56
25
37
94
-78
39
-2
82
4
-286
-5
-38
17
92
2
-22
660
338
-21
-11
29
-374
-11
2
82
4
2
-29
457
-11
4
-38
16
-131
3
3
8
-61
-19
-60
99
27
-96
-55
-5
-150
4
-12
-1
-623
49
-68
-398
-765
232
189
-4
-665
88
-16
-38
43
18
-25
407
67
-19
16
0
-117
10
26
-104
289
-32
-3
-57
510
20
18
12
-352
-18
17
-57
366
4
694
-42
-356
11
-34
-12
-468
-24
-107
-140
64
-18
-4
2
96
-5
-37
-11
-161
-12
10
2
23
-31
-56
248
79
3
-89
19
-93
-6
5
-11
-154
12
-9
23
-137
-189
19
-791
13
124
60
-95
18
57
-7
-3
-94
-34
14
-177
10
-2
-31
-18
-27
-24
-22
7
-72
-95
16
101
-6
15
23
-94
37
-14
2
14
-55
-68
16
-299
-21
28
5
-119
14
-33
-1
13
-21
-18
-2
274
-13
26
15
-24
-86
20
-2
20
36
-14
-9
-95
-9
-13
4
10
390
436
21
38
-139
-133
60
760
24
29
49
-90
-8
9
20
20
-142
132
44
264
-36
-53
13
-124
-7
60
-1
22
-50
54
21
916
-2
19
9
-44
338
-27
-32
-9
105
90
-14
415
134
-13
-21
76
-58
6
2
-22
39
-59
-9
-41
-10
28
-27
52
-28
-67
-26
-27
93
57
5
142
0
-20
-78
72
20
-15
139
36
-181
74
-380
-20
-12
42
-134
13
40
-17
-270
-20
-53
61
744
18
-12
50
-238
-4
17
-29
12
3
10
54
-974
-7
-8
10
21
6
20
-1
-61
-16
-9
93
126
33
-5
-5
102
4
11
4
-12
12
13
29
618
58
17
6
16
-3
11
-12
12
-18
8
21
-11
-84
5
5
-48
18
-26
-1
49
8
-37
-43
-1076
3
32
9
-50
-1
-11
6
65
17
282
-274
-90
16
8
40
-40
0
-24
-4
-16
20
6
19
-2047
72
9
0
83
2
-22
0
-1457
7
134
-149
360
-26
-1
-66
-127
17
-3
-2
14
-1
-23
-1
-641
16
24
-12
112
-9
4
8
17
-7
-24
-18
144
61
18
-15
18
-32
2
1
2
13
-52
-1
-2
12
-14
-4
1
3
1
1
0
-2
3
0
-2
13
-1
0
43
1
-1
-1
-4
-29
130
-6
0
30
5
3
-41
1
-2
-2
1
-5
-10
-4
-9
17
-2
-6
-4
0
-20
-5
-18
-1
36
-60
9
-29
44
14
22
-1
3
-1
-1
1
-21
2
-1
-2
-2
0
6
0
-2
3
-3
-10
74
-1
94
-30
-7
-15
2
1
1
-3
8
25
-10
5
-14
-6
-4
-14
-1
1
-3
3
-3
-12
20
-6
1
23
9
4
-51
2
1
2
0
-15
3
-8
1
8
-4
11
-2
5
-11
3
-2
4
-39
4
0
11
-2
3
-5
-1
-1
0
0
-6
26
0
7
10
1
-8
45
2
0
0
-1
-1
0
23
3
40
1
-5
2
3
0
0
-1
-1
-1
-2
-1
50
0
-2
0
1
-2
-2
1
-2
-17
-16
3
428
0
-1
-3
-17
-2
18
0
1
-8
-1
-1
95
1
-2
-2
-4
9
-6
-1
9
-1
11
9
-185
-11
10
0
-2
1
17
0
1
0
5
0
10
1
0
1
1
3
1
0
-3
-7
-14
6
-89
-2
-25
3
0
-1
19
5
2
16
14
-12
139
2
-4
1
20
1
0
2
5
3
-13
-2
59
0
1
3
4
0
-4
-3
1
-12
-12
3
68
-7
3
1
-12
-4
-8
-4
2
2
7
7
-87
10
10
-1
-10
0
-6
0
0
0
-6
-2
40
-1
-4
-2
2
-3
-2
-7
-36
169
1
-1
25
-2
16
-711
-6
0
-1
-2
2
-6
6
1
12
-2
-3
10
1
5
3
-58
-14
-102
-21
15
43
-5
5
-49
-16
8
2
0
-9
33
11
6
12
0
-7
-101
-25
48
24
-87
-1
-43
-2
7
-5
28
29
-76
-26
4
16
1
-4
-2
-4
-2
2
4
0
-4
-22
8
1
7
-1
31
8
2047
38
-7
1171
75
10
-50
6
12
-8
106
-3
36
26
-4
-2
-27
-6
35
-6
13
13
-4
-47
-3
10
15
5
-8
16
-25
-2
0
-31
58
-567
-7
-18
-1
13
220
-34
-43
-7
42
-16
71
-24
-17
30
-1
-32
441
24
-20
2
19
17
12
0
-55
7
-1
-45
-453
-9
4
-7
-16
1
-70
-16
2
-102
0
-6
2
-15
4
1
0
-1
13
-1
0
-180
0
1
-13
1
-5
6
-5
2
-111
-28
1
211
-2
-2
-13
-7
10
-3
-8
0
0
-6
-3
-162
13
18
-5
4
201
-1
-3
7
-88
-9
-3
267
-13
-33
26
-14
-3
0
6
-4
-11
2
-7
2
71
-1
-5
2
13
-4
-6
1
-37
-11
2
-49
5
13
0
130
-22
0
19
7
16
-5
-13
49
-19
-72
14
-86
3
-9
-14
-1
20
6
5
-33
-11
32
-15
19
7
-17
10
0
-58
-18
-2
172
-2
4
17
25
-53
32
3
-5
-51
-18
7
239
4
-5
-84
-23
-5
7
6
4
31
11
-2
-60
-47
-56
0
-4
1
-5
28
18
3
-12
-2
-10
5
-7
0
27
0
4
0
-2
0
-1
-1
-2
-2
-5
0
-1
6
-7
-7
-15
-13
0
-2
13
-171
-5
22
20
2
13
-15
-2
-6
9
-1
0
27
-3
20
26
150
2047
-36
0
-64
7
0
-111
116
0
-7
-4
0
-2
1
1
-1
-3
0
7
2
3
1
-7
4
30
-1018
-1823
-10
165
5
-12
3
1
18
-8
-7
12
-58
-33
31
9
1
9
77
-2
-3
-28
7
-15
-9
4
-25
-7
-1
3
-289
0
8
13
-17
-16
60
22
19
-7
2
84
458
2
29
31
-1
-72
90
30
33
-2
-15
54
-2047
-7
21
54
-2
-15
31
35
16
-5
-4
4
-66
-2
4
-23
1
16
10
-27
-6
0
7
-6
-21
-2
-27
-21
-12
-4
-2
24
5
0
0
-3
0
-1
-16
3
22
31
1
-136
-211
-3
-9
-13
13
4
-55
-5
-25
14
-12
-150
-20
-4
-7
-10
-47
33
-15
9
-1706
46
-6
-368
549
3
4
35
-57
-69
-39
31
5
-1
0
-15
8
-1
22
1
1
24
1
-1
-28
10
3
161
-42
6
-13
0
258
0
-8
6
20
10
20
2044
57
7
6
-3
147
-35
16
2
31
-17
-7
-4
315
-5
-10
-13
26
-16
4
7
119
29
7
-159
-2047
-2
14
-2
-4
28
-14
-9
205
22
-26
-195
1348
-2
-6
-18
190
41
-42
1
11
-10
17
104
-3
9
-4
0
188
-35
8
17
-8
-1
-3
3
-15
-37
9
-1683
-2
5
2
-13
1
-1
1
1
0
3
-3
79
8
-2
1
5
0
-5
-1
3
-19
-32
9
-229
5
-23
-9
-24
1
7
2
1
-5
-37
2
72
-5
-1
-12
-28
58
-9
8
48
19
25
3
-257
-28
17
-92
-58
2
2
3
0
1
12
-1
-32
0
-1
-10
-34
0
1
-1
-7
0
-4
1
-26
0
-258
-4
27
5
-17
3
-1
6
69
2
78
18
18
42
62
5
16
2
2
10
23
-14
-100
-17
7
-27
-9
37
6
0
-2
-15
-33
15
197
-27
4
30
38
-11
7
0
10
14
-5
-4
308
1
7
33
32
-3
-18
-1
-4
5
54
-4
1068
1
3
11
40
0
8
0
-20
250
-2
-9
22
-4
5
847
13
0
2
314
-11
9
-38
1
12
-1
7
-75
-3
1
4
-674
-9
134
-15
-28
31
4
18
294
10
-68
-11
21
-28
73
101
-45
20
-1
20
-814
1
5
17
139
-3
-92
-706
61
1
28
39
156
-9
-13
10
4
1
23
-5
-2
-5
-2
1
2
6
-15
-6
15
-4
39
-38
-1402
17
-9
-727
-65
-18
-2
-29
-26
-32
123
84
-93
-25
7
-35
-169
50
-25
-2
122
-15
-47
-94
24
20
18
29
-103
-11
5
-9
114
-14
8
-258
33
-22
10
-20
-172
-25
-3
-2
15
-16
-134
-124
52
-41
3
8
-197
-28
70
3
28
-8
-142
27
0
29
2
39
-208
48
-3
-8
-12
2
1
-11
-3
-65
-11
37
-18
9
-6
47
-8
-3
0
-1
0
-291
0
13
46
2
-37
62
-13
6
-83
-45
-5
277
-1
-6
27
-15
-5
-15
-139
1
20
-12
-47
-199
4
-25
-7
19
-115
-12
-13
22
-152
5
5
309
27
-108
-72
-6
2
-5
-625
0
10
4
90
-16
-2
-39
-61
-1
-13
-5
12
5
6
2
-9
-238
17
34
12
-57
-69
-41
16
-19
-29
-5
-36
189
4
-64
15
-17
-23
13
48
6
17
13
-22
-255
9
56
-66
-23
0
-33
-24
-9
-3
-9
4
4
9
-40
-18
-32
56
22
-19
-10
-29
-16
14
-80
14
8
67
11
-5
35
242
-19
18
-6
-30
128
-2
13
19
-11
5
-28
11
1
29
7
22
-5
19
7
-41
3
20
-15
-7
2
3
-1040
-3
-2
-179
-2
-10
0
12
-10
-33
-6
-9
165
14
-24
-136
5
-1
4
-14
-170
-6
4
-3
-12
-47
-17
2
5
-7
-16
10
-210
-19
-61
159
-28
-28
-3
-53
-1
24
-38
-2
-2047
-12
2
-7
-4
1
3
1
0
3
-114
22
-30
28
1
-289
50
4
75
7
-4
10
-1
66
-23
33
14
196
164
7
38
30
-12
40
-10
-19
137
-1
-10
-6
-189
-12
13
-96
2
22
7
25
-17
18
-2
-34
-85
-17
-1
-32
4
-30
7
-9
-68
37
-3
-31
11
13
2
21
3
-19
-2
5
829
-18
1
-41
-4
-12
15
4
-4
11
43
20
11
2
-1
17
41
3
18
1
-1
-1
-11
173
9
-2047
1
14
6
3
190
-3
0
-2
-3
-9
102
951
3
-21
51
2
-109
0
-16
-3
34
-21
53
41
-19
-17
69
-4
0
4
-7
2
107
39
28
-29
26
-116
51
-2
-149
19
-5
13
26
3
18
3
-65
10
204
0
1
3
0
1
-57
5
-7
32
-7
-12
-25
-6
-23
1
-11
-1
-7
-106
-68
154
18
20
-61
-1
-29
0
2
-7
-24
-8
62
-74
11
22
15
3
199
-1
-2
7
-21
92
18
-86
6
-4
50
-6
293
-7
-8
2
20
87
0
-557
-4
-20
45
6
-95
1
-10
-1
-5
-17
15
-20
29
-29
-88
6
-2
-3
5
-2
-50
14
-114
17
-4
-12
-24
9
-77
63
18
-9
8
7
-118
-6
0
-3
0
-1
-101
32
-3
-33
12
-164
-386
5
3
11
-11
5
-129
-73
9
-15
-10
-63
529
-58
-14
-6
32
10
-206
97
10
8
281
-46
82
29
-10
-37
45
8
-46
127
51
26
22
0
12
3
3
4
-8
-2
-1
-2
-6
3
140
129
-45
-357
4
1
-498
-28
6
30
29
-19
12
-51
16
147
10
-55
18
79
1191
30
-25
-35
43
-59
339
14
7
18
-28
-5
90
-110
6
-1
53
-11
203
19
7
9
8
-31
56
40
6
-29
-7
-17
-6
-28
2
18
42
-11
62
49
16
-10
-13
67
-181
104
3
0
-28
17
-36
95
-19
37
-118
-1
6
-11
-15
8
1
4
-9
-3
-6
34
31
-2
-8
-6
1
-2
11
-2
4
1
1
12
1
-9
-77
-34
16
-26
39
-3
-5
349
-5
33
0
1
-15
10
9
25
-5
1
-34
-62
-5
-61
35
113
66
24
-1
-42
29
50
-59
-592
-3
-36
1
1
-1
-2
1
-21
-1
-2
6
-1
-3
-98
234
-3
-17
-236
1470
-6
-50
-3
18
-4
-6
-49
6
-17
-66
-53
144
10
-38
5
-101
-18
22
-55
-1
10
-46
-25
-5
13
11
-7
14
-1921
-6
6
36
14
26
60
-19
31
-12
10
62
-390
-3
31
88
2
78
93
-31
16
-9
20
102
1927
-7
-64
94
-1
-4
-2
-29
-15
-13
-2
-30
36
20
113
-124
-2
-22
24
1
-12
0
7
14
-35
2
6
-1
3
-35
-198
13
94
0
-2
-9
-5
0
-7
1
-10
33
938
-22
123
5
19
-32
-17
0
6
8
-11
-10
-32
-2
-114
8
-17
41
6
9
1
5
24
17
-438
-7
-198
-6
139
13
-5
-23
10
-23
-46
1
-1
19
-5
8
26
19
-14
7
2
0
-2
30
-38
-15
-37
-1
3
-4
143
-6
26
1
-11
-8
203
50
57
-20
-72
34
38
-6
6
-7
11
18
-257
-27
-102
-1
-4
-7
-5
1
13
2
1
-1
-210
-9
442
-2
-56
41
-13
-5
-5
0
-13
19
-60
-10
221
-4
-83
17
11
-10
5
-7
6
36
-101
-3
10
-16
26
-6
17
-4
-2
3
4
-9
68
-183
10
5
-7
-5
100
-6
-37
-7
4
7
-6
32
124
7
1
1
-79
0
-92
-3
372
28
-6
-102
-2047
8
-11
-18
-264
-28
-31
-10
3
-6
56
211
13
-54
-3
-10
104
114
-12
-13
-1046
18
14
-437
-994
50
10
21
9
20
-22
58
-3
0
-16
24
-9
23
3
2
-12
-12
3
1
14
-2
27
165
33
13
1
-13
-172
13
2
-25
158
-18
80
2047
-100
-4
37
7
-54
-24
24
-6
-13
9
-22
465
2047
2
-12
-6
90
10
14
25
-189
3
-75
218
1572
0
3
-11
-90
-1
-25
6
-172
-7
46
367
-1068
-14
-16
-23
-41
31
-22
21
-18
-53
104
-182
15
26
6
-1
413
-54
17
14
36
-2
12
-6
3
-182
-2
-2
-2
18
-2
26
0
-8
22
-8
-2
140
0
-2
0
23
1
-4
5
-18
-16
9
4
1075
1
-13
-8
-13
-5
10
58
5
-25
8
6
835
5
9
-3
-12
0
20
98
-30
-51
20
-7
-224
13
-188
-40
5
-3
-26
-5
-1
-4
-1
-6
-10
3
-3
0
-25
-6
5
12
2
-28
9
-7
-163
-3
1
4
13
0
-16
17
3
50
-12
5
12
8
20
7
-66
-5
3
-63
-3
-8
7
-7
-309
-1
25
-3
25
-3
-33
26
-1
-17
13
3
-18
1
12
28
40
-5
22
48
15
11
15
2
25
-4
-5
-1
26
-3
5
93
1
16
-3
-5
2047
1
2
-1
-7
11
-58
-4
11
-2
-3
9
22
1
-36
13
0
-18
-1
-1
695
-2
-16
22
-2
3
15
-34
-1
-4
-1
9
-96
3
-57
19
-40
-1
-2
30
-6
-6
-3
-57
10
2
109
3
-30
-2
52
120
-22
2
9
69
-15
-2
37
5
-20
1
-9
419
-22
-2
-29
-928
-5
-2
-7
1
43
-11
-14
6
1
1
-2
-22
-16
2
-1
1
1
4
195
-10
1
0
-4
-76
-22
-6
18
-9
29
-17
-2
-36
4
6
9
25
34
-9
59
-21
-22
4
-8
-160
-4
-5
21
-58
56
3
-48
-30
12
5
42
-112
-3
-26
-11
-38
2
1
-44
31
-7
-7
0
0
13
-6
-6
292
-34
4
-73
-12
-4
-5
-12
36
-2
-40
-1
-3
-12
-1
2
-2
19
12
2047
5
6
10
-60
0
-6
-1
-1
-4
15
-20
-163
40
3
10
-13
9
-19
1
-1
-29
49
0
-235
-4
-21
-13
-10
-8
-90
-4
1
-4
15
25
2047
-1
-3
23
-33
210
17
-1
38
25
6
0
-251
-24
22
-14
-15
9
107
1
0
-1
-5
-3
-20
2
1
6
0
11
-6
-1
-2
-7
-50
-14
140
4
374
-3
-17
-17
-43
-1
1
-4
-138
-2
-8
19
8
-26
-61
12
-6
-4
-3
17
57
2
-71
-21
9
25
21
29
30
2
2
-3
-84
10
-324
-14
-14
11
-13
-2
36
5
-1
2
-3
15
-500
38
-13
34
4
-9
7
2
-3
15
112
18
745
13
1
-27
-7
-6
137
-10
-10
170
-48
-3
13
8
0
1
-2
3
-32
-209
-18
35
-23
4
4
27
4
10
883
18
106
79
-35
127
52
-5
36
-49
-12
25
-145
9
179
2
2
85
47
3
2
11
17
-20
2
-108
-9
-107
-7
-125
-13
0
-14
-101
-23
2
13
7
39
1
2
-16
1
4
-46
1
-3
8
-9
-14
16
-15
14
17
-13
-8
-9
-5
3
-9
3
7
38
-105
-42
-95
-2
5
-10
31
3
4
5
-9
-37
126
37
-73
12
-10
-18
41
-5
-11
-140
-5
87
43
12
-139
31
3
0
58
-13
7
91
24
21
-154
7
-90
-77
-1
-25
-9
-14
22
253
-7
-60
28
-1
-237
-26
-2
-11
30
0
23
-36
-4
-2
35
-3
9
6
-2
-34
0
-13
-4
-55
1
5
41
18
16
1
-4
-6
3
-37
-4
1
-6
-2
-72
-36
77
5
-16
4
-14
1
2
21
-5
-2
-14
-72
-132
4
32
-28
10
15
-16
-2
-7
35
-65
-7
-65
-71
-305
-30
-33
-7
148
-5
-6
1
-4
5
27
-13
1
-3
-1
7
3
18
4
8
45
19
-47
-5
-12
13
-3
31
8
0
0
-19
-65
-60
-39
2
25
-11
-12
-46
8
-35
-4
-1
105
53
-10
-5
-21
9
-10
15
-36
64
0
-4
22
37
58
6
-30
25
-27
-5
-27
-32
5
-5
58
30
2
-2
-61
24
-10
-2
21
-80
7
-6
-128
8
32
4
16
-66
8
-62
-5
-170
4
7
-20
9
0
11
-184
-11
1
5
37
-1
0
17
45
6
-9
5
18
-2
6
1
9
12
6
17
97
10
-24
24
-114
-3
6
-3
-45
-6
3
5
8
7
-20
-34
-988
11
1
3
-20
0
-55
-25
75
-12
-14
-17
64
-21
17
-7
-38
-5
-4
-11
-6
0
1
2
25
209
0
-2
10
0
3
-2
-9
3
259
-52
215
8
3
-1
11
-1
0
9
-41
14
61
7
184
-27
-5
-6
-18
-2
16
-2
43
-3
48
18
173
-6
-6
-13
-23
-3
3
12
29
-1
25
-13
286
3
2
-3
116
0
4
-4
17
-1
-7
-3
660
0
7
3
136
-8
-3
-14
18
-8
13
31
-183
-57
-4
4
38
5
0
0
-21
3
0
-47
10
40
-8
-9
14
12
2
1
-1
9
1
24
4
10
-69
-3
6
6
-7
-4
85
-45
1
111
0
40
114
-17
-18
-28
7
8
-12
51
0
-97
4
-25
-68
-67
27
-15
8
-8
-29
-6
-16
-464
-4
-49
139
-118
-26
-37
5
-2
-13
-25
0
2
0
-15
-6
2
-4
2
0
0
-5
21
4
0
-5
21
1
0
-12
6
-16
12
17
60
-4
73
-4
31
14
-11
-2
27
6
-6
3
21
5
-8
-6
37
-166
6
-24
78
16
2
-5
65
1
430
-9
-11
-28
41
-8
94
-7
6
-33
67
1
367
-11
-28
105
48
15
-13
-5
10
-48
-80
1
-187
7
-85
123
21
-20
-3
4
0
-1
-10
17
8
-3
1
1
-16
-62
-1
0
0
36
0
6
-2
1
16
-2
1
-25
0
-1
-2
-66
-19
-40
41
32
50
-14
40
-24
4
9
2
0
-9
58
-16
20
9
-2
-1
-24
1
9
1
58
7
1
-82
27
-23
24
18
73
2
-2
0
-1
1
-16
-1
-1
2
-1
1
6
-4
-2
-7
-5
-14
51
6
-993
40
-1
-877
62
1
16
1
26
24
97
48
-89
-3
-3
-38
97
-2
-30
-2
-29
-2
23
123
7
0
9
24
28
-26
10
-3
-69
-5
9
-65
7
-8
-3
-10
-9
5
-6
2
36
-2
36
-72
11
9
-9
7
-84
-3
0
1
-7
15
-93
-5
-5
7
1
-9
-171
1
6
39
-3
3
0
-16
-43
54
-2
5
3
6
5
40
1
-2
0
2
5
-46
4
1
-7
-6
-66
-48
-16
-4
2
27
11
-112
14
30
-46
-12
13
136
5
-3
3
11
-5
-75
20
11
-13
-6
-62
27
-12
16
33
71
15
121
50
40
-4
-19
1
-12
-8
-1
0
0
3
-3
-7
1
-2
2
21
-15
-212
-5
2
-548
10
-368
-1
27
-11
1
-25
-113
-30
-3
-11
-27
40
537
28
-39
59
25
-21
-28
34
0
16
-28
38
-76
-109
-8
28
-28
16
-7
14
4
-3
0
13
11
44
8
0
2
-18
136
15
4
4
10
18
-56
-4
3
-1
2
25
46
19
0
-1
-7
-12
99
12
-12
-1
6
-2
3
-2
4
-1
-5
-1
-3
4
2
-11
-4
1
1
-2
1
-1
7
-2
1
-3
-7
-4
-15
6
7
2
-6
-10
-20
3
1
-129
-12
27
39
0
2
-2
-4
-1
0
-1
13
-2
-3
30
33
-7
-24
6
-9
-33
-12
30
-8
-120
17
-11
9
1
0
1
0
3
1
0
0
2
1
-2
-1
-6
-9
-90
395
-1
340
1
1
-1
5
-13
-3
-1
-4
13
3
-13
10
-2
0
21
5
-27
-58
15
-3
-7
5
26
26
4
-29
-332
1
11
8
3
-5
-13
-13
1
10
1
11
-86
-10
22
24
-3
4
-24
-9
-8
-6
-6
6
66
-16
4
5
0
0
6
-5
-1
1
2
3
48
5
-10
-22
-2
14
3
134
-18
-3
7
5
-55
0
4
-12
-7
1
7
79
2
1
-4
-3
11
3
-2
2
-15
38
11
-52
-324
0
-14
-22
13
5
-27
-2
-3
4
12
-231
-3
-9
-14
-3
-72
1
-6
3
-175
-30
6
-121
-228
-3
-9
12
-129
-5
-21
23
0
1
-4
-1
1
-1
1
-2
0
1
3
0
13
0
0
240
-13
3
-10
-8
110
4
-13
29
28
6
15
2045
69
-1
-17
0
72
11
8
7
4
16
-90
166
73
12
-9
4
23
-5
-1
28
54
5
38
-98
395
-8
0
-7
23
-1
-6
-1
-37
8
24
44
-128
0
-6
-5
-28
-5
4
3
8
-17
26
-57
-5
-6
4
-4
127
0
14
18
0
-2
0
6
-2
7
-1
-13
-12
0
6
-1
-1
1
3
-5
-1
-1
-1
-2
9
-1
2
2
1
1
26
-8
-4
8
-10
46
47
10
3
-28
12
2
-6
-1
0
-5
-1
3
21
-2
1
-3
-6
-7
27
-11
11
-77
-8
32
27
-35
12
19
0
1
1
4
-1
1
1
0
-2
-2
1
1
-2
-3
-7
-12
1
-4
-3
-3
8
-2
-7
-3
5
3
-67
-46
0
-21
9
-123
6
-5
-1
4
4
-3
5
39
-9
125
0
27
-62
9
-16
-8
4
-1
-24
-27
2
-105
0
1
20
-15
-8
24
2
3
89
-17
-1
68
1
25
84
-24
-12
-6
1
1
-2
2
0
-3
-1
-8
5
3
0
0
-3
6
-11
10
-24
7
6
214
9
-13
-3
-18
2
-12
-7
5
-8
-33
0
552
-7
17
0
-28
-2
-10
-3
0
2
22
-6
83
2
4
-1
4
1
4
-1
-1
4
11
-1
-50
0
-8
1
3
2
-2
0
0
-17
-35
3
-61
-9
-14
-2
2
-1
-4
0
-2
-5
-17
0
-12
-1
-8
-2
4
-3
-11
-3
1
0
-19
-2
-153
1
-10
-1
11
0
0
0
1
5
11
-2
15
0
2
1
8
-1
-2
0
-7
-4
-38
0
223
-2
-12
1
5
-1
-32
-9
2
-30
-72
4
-116
-12
-21
-15
-38
2
4
3
-9
4
-5
-5
-188
1
-18
1
23
-15
8
5
10
-9
-1
3
373
-3
5
-3
-14
10
8
-2
-3
122
72
82
86
-4
20
1
10
14
5
30
-64
288
-51
50
-46
-30
-56
-128
31
-18
-2
8
0
130
-2
28
11
8
10
109
20
2
2
-2
4
28
1
-3
-16
1
-1
246
0
-2
-2
1
-28
24
-28
10
-8
-7
-5
51
13
7
-3
5
3
8
3
37
-41
3
23
-24
-3
-4
4
2
13
61
8
-36
-17
-19
9
479
14
4
-1
1
6
-6
-11
-10
9
-4
279
50
4
-4
-3
2
-18
-85
6
-4
69
-7
-8
28
1
18
19
-89
-39
231
-232
46
39
-2
29
-83
-31
0
-6
2
-5
100
-10
21
29
0
141
-158
-2
9
-2
-13
16
-105
77
6
32
-10
7
-134
-20
24
-16
-8
1
-103
-8
1
-20
-3
10
8
3
-97
-9
-12
-15
-115
-32
-1
31
-10
9
-6
19
10
-3
-5
4
-45
-8
-6
-28
9
-14
9
-40
3
-5
5
0
41
5
1
-112
0
12
-1
-2
-4
-20
-23
2
18
9
-7
585
8
-16
3
45
5
-7
-4
-1
-28
-7
1
-17
-1
12
-5
125
3
-13
12
10
-3
-6
5
-56
-2
-13
-7
77
-2
5
3
0
-26
8
-2
62
-2
8
3
19
2
-14
-3
4
-19
-11
-1
-123
0
1
-3
11
45
-5
12
-1
8
-10
0
-191
15
-26
-39
-75
3
-18
0
8
48
6
-3
-35
-2
20
-9
-931
16
12
28
11
45
-6
10
-3
-2
-26
-2
26
1
29
-12
-9
-5
-19
2
-28
275
2
-2
-1
2
-139
27
29
-14
-37
-11
107
-256
9
34
46
3
21
2
-11
-5
12
-1
1
-26
11
11
-35
2
2
-6
-3
-5
0
-2
-7
-2
-5
5
2
4
-3
-52
-5
-6
-4
2
19
-42
4
55
52
1
2
-2
-3
-3
-8
3
-5
-4
18
9
22
3
15
0
19
15
5
-6
3
4
21
1
0
-1
-1
-1
14
2
147
0
4
-12
6
-2
-17
0
9
-2
-1
-3
-1
3
-4
6
-9
8
17
22
7
62
42
-4
-23
-23
115
-829
-5
89
8
2
1
39
16
2
95
1
-3
-21
11
-3
17
12
83
19
-10
-17
-3
5
0
-244
-13
0
-14
4
-1
-10
-7
-14
22
12
-8
-7
-60
-2
39
10
17
-14
-7
-64
-80
25
418
1
15
-1
18
-3
-1
-5
-2
19
51
2
-1786
3
-10
17
8
2
2
0
-3
0
-4
-4
152
1
-6
-11
-19
0
1
-2
-6
-4
12
-10
1476
16
-12
-13
-11
-1
-1
0
1
-9
4
2
112
2
-3
-7
-21
-9
15
-6
3
-11
18
-19
-157
-3
25
-12
26
2
1
-1
-5
2
-3
-2
6
0
23
-4
-4
-1
-7
2
-1
4
-54
0
-231
-2
-22
-10
2
-47
22
-8
-13
-9
-109
-3
-560
-24
-31
-14
1
2
-2
3
-4
-1
7
-1
117
1
-16
0
-21
-25
0
7
8
5
-68
11
-432
-8
-24
-3
10
-78
-13
74
53
-64
-183
143
30
-14
100
98
62
-14
2
224
-24
446
244
119
42
-36
-184
-16
-34
-61
15
-3
68
529
36
-33
-46
14
-119
-135
12
-6
-2
0
-18
26
-1
-7
6
-3
-25
-204
-7
-46
30
18
-431
-533
-27
-98
74
-32
34
-184
-43
5
1
-6
-7
-66
-8
73
74
-5
-113
143
-7
54
-25
-12
2
30
21
12
-12
-32
46
-1151
1
-1
3
-7
16
43
10
457
19
0
2047
127
9
64
89
28
-15
49
-33
-15
46
1
-25
-113
-462
-189
110
-61
90
-44
-21
-36
97
-13
-178
356
56
26
15
1
-7
131
26
274
12
11
734
469
9
99
-121
40
320
-168
408
-64
28
-29
-75
-431
455
-33
-63
-85
8
-59
41
19
147
3
100
15
75
-201
-10
-267
-7
-123
-25
43
-388
-6
144
9
36
-4
-33
-89
-1
-131
-14
39
-429
-51
77
16
-7
0
1
48
1
23
-4
-11
-207
6
-12
5
5
-3
1
-3
10
-50
11
18
855
1
-65
3
1
-5
-28
3
5
-26
-38
5
0
6
26
12
-37
5
-88
-103
1
-94
-19
5
-147
19
20
2
22
5
22
6
4
-34
12
7
162
-3
19
11
10
-23
-15
19
54
47
-4
11
-303
35
-24
16
9
-230
31
35
52
60
-69
91
-214
78
-199
6
50
-5
-21
15
13
85
-12
13
-93
-3
39
14
-1344
123
37
-78
-110
215
-14
1
-223
11
-95
-31
-1
23
22
-155
-3
35
56
-70
-2
65
3
23
12
104
-33
-326
6
30
206
-105
-29
90
0
-78
-20
92
-91
-275
3
31
70
-16
10
26
10
-37
6
0
-26
-20
1
31
10
5
-15
0
3
4
-5
-52
-76
51
-2
1
17
-37
57
4
2
53
-6
3
-4
-20
-2
-2047
-8
-8
-48
-8
8
21
1
-20
-63
-311
2
208
31
-24
-8
-38
12
5
-5
33
-13
-48
2
-207
-5
-8
21
2
5
20
6
-27
31
-2047
-7
-23
30
-38
-11
23
2
6
2
-17
38
-150
1
106
118
244
-9
-5
-31
62
-2
27
-6
95
5
-95
-15
13
-22
-2
11
-138
-5
-57
83
306
-1
-19
-4
-452
-34
31
19
14
-2
494
-217
207
5
-29
-5
-80
474
-1
3
16
34
-118
-719
-2
-11
22
-37
-73
1152
-91
-15
-208
11
-47
-752
83
6
32
-47
41
378
-41
-4
-69
-53
-31
170
2
-1
-2
19
1
-213
25
32
-31
-5
39
284
-6
1
69
-26
108
-870
-11
-14
-127
-88
78
120
144
-11
4
-33
-1730
-601
30
12
-19
-15
-127
371
25
14
-24
4
-24
602
-19
33
-83
28
27
-72
-83
-6
-15
32
-224
-1099
-40
6
8
-7
44
26
-13
-14
602
4
-17
-109
39
12
-30
-8
222
-40
186
-21
-130
34
-24
-397
108
-25
-136
-228
1
-306
1998
1
26
10
845
-349
47
29
1
-17
111
452
28
5
-105
37
-129
-207
-151
-4
62
-89
-4
-48
0
-46
-5
31
0
125
987
28
-50
-74
5
-208
-101
-51
-74
25
-3
-55
600
-6
7
52
1
5
-57
5
-1
25
2
15
4
-9
16
141
1
2
-2
9
25
2
1
2
-15
-7
3
21
-2
1
-27
47
0
36
3
-6
63
29
24
344
0
-7
1
-13
-21
77
2
4
11
-15
-14
16
-2
18
-42
-1
-70
-37
5
14
29
-10
-68
45
-2
4
-5
-40
0
-74
-1
-36
4
7
-13
-4
-3
-15
12
10
11
-4
-3
34
-2
-24
51
102
6
-76
45
-31
29
65
10
751
213
-82
62
93
2
-34
-13
-47
-2
-90
1
-66
-12
-8
-23
-5
23
90
44
11
-30
40
-1
-339
137
-12
41
136
3
-74
184
1
-249
-7
4
-27
17
4
15
8
1
-13
-724
60
183
7
22
-84
-140
-11
43
-17
-9
-56
12
84
135
40
98
25
-37
1
39
1
-9
-20
-1
-9
-10
-6
-15
12
42
-6
-8
2
-5
-15
-46
-71
40
20
38
-31
139
14
11
2
3
-66
8
-23
33
-2
-1
-35
48
1
11
0
-9
-31
6
4
14
-11
-35
-45
-311
-14
-14
0
1
74
-25
32
61
4
-2
9
-58
-1
-6
1
13
-67
4
-34
-28
87
11
4
8
-120
-2
2
153
45
163
-20
-97
40
89
210
8
20
-57
21
7
-34
12
-8
14
17
-5
-1
-33
-1
-14
-3
-102
114
-13
-72
34
-64
255
53
71
67
-18
-5
434
-33
-14
2047
1694
7
55
0
-199
111
-29
-7
-674
55
-51
2047
-1834
-19
52
-10
-211
106
40
-25
42
19
65
-402
105
1
106
21
112
71
-15
-25
1
1
26
-10
-28
-3
-20
-6
-64
8
-3
-8
-13
-37
21
-126
-9
-9
-43
-25
-438
58
30
-21
-18
-16
5
-16
-13
-3
-12
-16
-10
8
-21
-5
-6
64
-108
-689
13
-4
104
21
-79
9
-77
-11
-17
-38
0
116
3
-1
5
-1
306
35
12
3
14
28
-23
-47
-1
-4
408
-19
-87
640
-27
19
14
14
31
-341
1577
-4
34
-58
9
-1169
51
20
50
-11
23
512
168
9
-21
2
243
15
-23
-39
-250
25
109
-11
508
-106
-42
-19
-177
1478
58
-6
-68
-78
20
-7
-12
-834
-9
-47
27
59
-3
-22
30
94
85
-2
-1
-165
-2
76
-30
166
4
72
-17
-7
97
-33
12
132
-1
-1
4
-16
-5
129
0
5
-7
3
1
266
0
1
-1
11
6
-2
3
2
-89
11
-15
2047
2
16
3
350
10
97
8
4
8
6
9
382
0
1
-2
137
5
58
15
3
8
22
-2
-2047
4
1
1
-104
5
-14
4
-3
41
-11
14
578
-2
3
-1
1
3
-15
-277
-1
-46
11
3
-180
-4
-1
9
7
-3
-4
68
17
-30
12
-7
-1217
-10
65
-11
107
-32
30
13
4
-28
-16
36
-475
3
8
-9
-97
6
94
235
5
-46
25
-20
18
6
-36
-20
6
3
20
3
-35
-5
44
-7
32
-4
-10
75
-1
-28
5
19
-54
20
-54
1
93
1
-79
156
7
0
-27
-39
-33
3
55
5
77
-9
0
93
12
5
-19
-38
1
-2
14
4
-15
0
27
0
0
15
0
-5
68
4
60
-11
-112
-16
350
21
1
-1
-11
7
30
-3
-2
4
-23
0
16
10
1
-8
-8
60
112
1
3
-5
77
-1
-144
74
0
-26
-5
4
-13
-2
24
-1
22
-1
-72
61
0
-19
-8
46
38
1
550
2
-5
3
51
-414
5
15
-27
138
96
10
-1264
-2
11
124
-22
791
-19
25
26
-9
-10
2
21
-9
9
9
-3
6
1
-12
0
139
-43
-13
1243
-7
18
-101
9
2047
92
-30
-97
73
-52
-13
0
17
132
-48
-396
-1
-57
22
67
-36
0
1
3
-43
-442
-3
-472
-10
-21
24
-31
62
-71
-5
-5
-23
22
-3
2047
-4
29
47
-8
-9
-8
0
2
-8
-101
-6
215
-2
-15
-14
19
23
-102
-7
-3
1
-491
8
540
0
-12
7
50
10
-2
-1
5
-33
-65
9
475
1
-49
-7
43
14
29
-6
12
-18
-210
47
1104
11
-35
40
-323
7
-2
-5
2
0
9
-8
-174
5
-81
5
59
3
72
0
6
-4
117
-68
199
11
-12
-426
-726
-174
128
28
12
-10
-633
13
116
41
-6
309
100
-20
3
1
6
9
-3
-10
-60
-8
-121
-18
5
176
-44
-46
5
-23
149
29
704
-4
-4
226
187
6
8
6
-74
-47
-3
-17
8
72
57
34
-9
47
42
13
-58
24
-27
9
6
-44
-52
-9
-16
13
24
-4
-35
-8
-11
6
15
-69
-19
3
-7
9
-12
2
16
2
-3
1
-2
17
-8
-13
-1
37
-24
-5
66
-4
5
5
5
20
-2
40
-6
7
-45
0
-111
1
1
1
-5
20
-14
15
-3
6
5
-1
-121
11
-13
-20
19
-11
-14
89
1
-4
-3
0
-3
0
-3
-1
2
-39
-12
7
-10
12
-350
-2
32
6
15
-20
-3
8
-84
-1267
4
-17
199
0
10
52
-19
25
2
-61
425
170
45
-7
-18
-2
-72
-1
2
3
5
-18
-6
5
-3
13
274
18
70
31
-4
-75
18
32
-156
591
-63
-6
-5
-7
-76
59
-8
-71
41
-7
-67
-70
-37
36
0
148
56
-146
2
47
-30
15
-113
80
-13
2
-10
90
119
-87
16
53
-173
-16
-55
-19
-10
2
11
12
-15
-5
2
-12
-4
2
-13
9
-2
-26
1
-19
9
-84
-14
12
-31
-7
90
9
-24
2
-1
-59
-7
-5
-2
-11
-22
-3
-21
2
-16
2
-16
43
-48
-33
-1
59
29
-9
57
9
-35
8
-16
28
-3
-11
7
19
-5
-7
-66
-10
1
97
6
227
-637
91
-1
-13
968
9
49
19
35
-6
-17
-36
-126
441
-2
-145
352
49
40
114
-87
4
-1
5
3
-23
4
16
-46
2
36
0
-7
-28
57
-252
219
-858
-38
308
-560
-34
145
48
-29
6
-5
-138
1
3
3
-491
-4
-25
-10
-83
-2
16
115
-67
50
-37
-30
62
-19
45
26
43
-11
31
25
-23
46
38
-60
798
-17
-3
12
-25
2
-4
-2
16
2
0
-15
-2047
-4
1
-3
24
-1
3
31
-22
0
-42
-250
-1328
-12
1
-1
-4
4
6
13
7
16
-55
54
46
5
1
2
0
1
1
-5
-29
-7
-88
0
-354
7
8
6
29
-8
8
-2
14
15
18
14
113
3
1
0
-10
1
1
9
22
-5
-13
16
47
1
0
6
-16
4
21
38
129
13
-61
19
-57
-19
25
-11
23
-38
-2
5
-8
7
37
6
-13
10
-2
-3
-5
-4
-23
-36
74
-34
-67
3
-184
-10
4
17
55
12
15
0
-99
56
-5
-153
1
-53
-49
-128
51
147
4
4
-44
-34
-10
18
-20
129
18
60
-82
-142
-4
0
36
138
-5
8
-16
151
18
48
-61
19
-2
-1
11
-10
1
-5
-1
47
2
13
-19
-8
-2
5
-32
-29
8
5
1
-120
9
9
-4
-5
2
3
-5
-21
1
-12
3
109
27
10
-14
-4
-4
16
-15
129
1
42
-4
-26
7
-20
29
11
8
1
10
23
2
49
9
-18
0
-2
4
6
12
25
-24
-1587
2
-70
7
-34
119
301
426
-11
75
-85
-461
580
8
-262
-17
104
1269
-2047
-63
-41
2
-4
28
-67
5
71
0
58
29
19
-13
10
-131
203
-255
680
4
-363
17
35
717
447
76
-7
7
-4
-42
11
-83
-27
45
39
-8
-11
2
3
-27
-4
35
-58
168
-7
65
25
-14
-1
-220
6
11
5
46
-21
115
-4
35
-17
3
52
194
14
-13
1
-8
-6
49
-3
12
12
-4
1
-45
2
8
3
11
-23
-96
-16
29
49
-12
17
62
-15
3
0
7
-13
60
-3
73
26
5
78
-48
-2
11
-3
-6
2
44
-2
-44
43
-7
-44
477
8
8
0
-4
7
18
9
23
1
2
317
34
0
-459
-3
20
-24
-126
-76
-3
71
-20
10
67
14
-137
14
5
-37
-98
-522
-42
52
12
-73
-82
13
-2
-3
-4
-24
98
-13
0
38
1
164
14
-6
565
22
-47
40
-210
475
-19
48
-19
18
40
4
4
11
9
5
-76
27
-11
368
-3
-28
-11
-48
-65
-36
35
-1
-134
0
-15
214
-6
25
-32
128
3
12
-29
-2
-156
-2
-3
92
-5
9
-20
25
0
-3
9
4
-10
-10
-5
14
-1
15
3
6
6
19
40
6
133
2
2
-202
2
-17
53
-9
1
-14
-7
3
-23
-39
1
-30
0
-1
16
-69
-5
-17
25
0
43
-4
3
-100
-1
13
4
-111
-1
0
4
-2
-9
21
1
9
-1
14
0
23
20
-25
64
-1
-47
-30
-3
56
7
88
14
1
204
-27
235
-24
-100
-88
40
85
-2
-137
5
-5
5
-31
-17
3
39
19
1
-18
6
21
-14
-2047
-132
-21
171
22
-136
-10
-25
402
4
-76
-28
5
249
229
270
-4
-17
7
43
309
4
-2
12
17
106
415
16
0
56
65
-91
188
3
29
-13
-111
-11
-155
13
2
40
9
-40
376
-3
-11
-29
92
9
-12
-13
-3
1
11
9
-20
-2
-2
-12
-6
-29
20
3
-1
51
5
-12
469
-5
-59
-50
-28
-14
38
-281
-2
11
22
488
-181
-2
-8
-20
-4
55
93
130
6
21
17
-94
-585
-7
9
31
-41
-13
23
-79
4
6
-2
81
-372
1
-8
2
-9
-28
-33
-13
-2
12
10
19
65
32
6
-11
-14
-64
-80
86
6
284
-33
82
240
3
-33
-105
-438
-17
-195
1444
-2
3
18
-181
-315
0
25
-41
0
-93
66
-13
-2
40
-6
34
321
-33
-37
-1
-204
13
-8
-8
5
5
12
4
10
55
4
-44
-37
-4
-113
10
-23
-4
5
-4
-100
-277
-6
-1
60
0
10
7
-14
-2
2
2
18
-49
0
1
-29
0
-1
-4
-1
6
4
1
5
9
-6
13
18
2
-1
-4
-16
1
33
0
13
-24
-10
147
49
2
2
5
-25
1
-46
1
4
1
-5
7
19
-1
-17
11
9
-16
-12
-1
18
-31
11
-5
8
-2
-3
-2
5
0
-149
-5
-5
19
5
-3
-8
-3
20
2
-4
75
2
1
43
-5
-2
-4
21
35
97
-29
2
34
42
-11
567
293
-6
-60
164
-1
12
-33
22
-11
-79
-1
22
-52
-7
-18
45
-20
-130
-57
11
94
-10
7
-234
110
12
-16
-7
1
-8
19
11
40
-3
48
-24
-18
-12
-16
1
-2
-1
-172
116
-52
4
-18
-27
-7
22
-33
-1
1
39
-63
19
6
11
-32
11
0
-6
-13
4
-1
12
12
17
-3
1
2
3
16
1
-1
2
2
70
-23
-23
1
8
-7
6
46
1
-4
5
0
-8
1
9
-2
1
-1
5
-1
2
-7
-3
2
-60
-28
-17
-36
1
7
-7
-31
-3
10
0
0
-21
0
34
-1
2
-15
8
47
1
-4
0
-20
17
-20
7
-78
-3
171
39
68
9
8
9
-8
71
-50
21
-34
31
897
98
59
13
35
11
-3
6
34
1
23
-5
9
1
2
1
-14
4
3
41
176
54
140
8
-486
37
79
-2
-4
-12
-7
10
-54
259
31
14
-10
-18
192
-3
-12
15
-47
34
-81
845
-136
-2
-17
-12
-6
0
-4
-10
21
2
16
68
41
10
25
14
123
3
5
-20
5
2
-7
-15
0
0
-3
-5
-17
3
-1
2
-19
-13
-9
22
-10
11
-46
-28
45
-6
15
0
6
12
0
-29
16
-1
-7
-12
-222
2
-10
-5
-27
9
5
224
-46
-3
-17
6
18
-1
-9
9
7
-15
2
113
-21
3
2
1
147
1
11
1
-38
6
92
117
37
-34
-13
-18
69
-19
-10
25
-97
27
-108
406
118
-66
21
-22
228
30
13
-3
6
-24
2
72
-16
2
-2
5
112
3
1
6
272
9
-35
-338
-256
72
5
-7
275
37
13
-12
26
-3
-8
6
10
16
8
35
5
-35
10
11
-32
-9
-6
0
-25
-36
16
77
-11
27
4
-37
-18
-1
4
-3
7
-13
10
639
10
-6
15
-24
-2
-6
0
1
-8
-6
1
-120
1
-6
-3
12
-5
22
3
10
5
-20
-8
323
10
-20
11
29
-5
1
0
-4
-3
-2
-2
164
-5
-13
-2
-1
6
15
-5
1
15
-2
-9
-245
-14
11
-21
2
0
4
-1
-2
12
0
-4
24
1
13
-4
-1
126
-177
1
0
22
-23
14
70
4
-1
10
0
475
7
8
18
-33
-42
23
2
-4
-33
-12
-142
5
6
1
-3
-1
2
-3
307
0
-17
-3
11
-325
179
-4
-3
-17
-22
12
-53
1
-54
16
-35
16
0
-34
18
1
12
0
-35
-26
-7
11
-31
-6
10
-71
-42
-10
-35
-7
-123
45
-18
45
-24
-2
5
-49
4
2
103
0
43
30
14
-19
1
-1
0
8
2
-2
-6
6
21
-12
-10
-8
2
-2
0
-10
-27
0
17
5
8
2
-5
-9
5
3
-1
-7
-9
0
17
-3
24
5
2
1
0
2
7
-26
-43
4
18
1
-110
-13
2
16
-8
3
0
-16
-5
-1
14
3
-7
1
5
-2
-6
-3
-9
568
2
0
-473
5
-181
-17
-10
-9
-17
29
1
627
-125
-1
-1551
-16
-28
5
-332
-43
43
-5
3
6
-7
-4
-2
0
1
-12
-6
-3
2
54
17
-1660
7
4
1939
1
-83
-42
42
14
-54
-3
-4
-21
-49
62
3
23
3
9
-31
14
-3
-2
4
-1
4
-51
-7
1
-23
8
3
91
-4
-6
-2
9
-15
9
-43
8
25
0
19
19
-6
-5
-5
-8
7
-49
-5
-11
-14
-2
-3
-52
0
0
-1
4
-16
4
0
-2
6
-3
-31
-677
2
-7
0
-1
-31
-12
2
25
45
-28
49
-19
-5
2
0
1
2
-60
-1
4
16
-1
-1
57
0
2
0
1
-15
110
-1
-7
51
2
-11
79
5
-2
2
-1
-11
-110
11
-8
13
-12
13
147
-5
-2
-1
4
17
-37
1
90
-33
3
-32
-59
-2
-1
-1
0
-6
-3
-1
3
33
-2
1
17
-1
-2
-4
-8
19
-112
-5
-1
13
-1
-5
-7
6
-2
16
2
41
-10
-12
-1
-20
-239
-1
30
22
0
4
1
-3
-2
1
1
2
-7
-1
-8
7
16
-25
-36
6
-2
-5
-2
53
113
13
1
-4
-2
7
-3
3
-1
-5
1
3
-130
10
-8
-16
0
2
-51
26
7
-7
-1
-8
-48
-4
-68
83
-2
-4
1
-61
2
17
-2
-4
-39
-14
10
26
-1
-1
-6
-1
0
-3
-2
-1
-2
-2
-11
-9
0
-1
-17
13
0
-16
1
-1
0
-2
16
20
2
-3
-25
-10
-1
-2
4
-9
-23
-9
8
15
0
-2
30
-184
1
-1
0
2
9
5
-10
-12
0
-1
3
-1
1
3
2
0
5
2
25
-57
4
-4
8
-4
0
-6
2
-14
-134
24
-20
-5
-2
1
1
-14
0
-16
-3
260
-5
-7
-2
-25
-1
-5
0
5
2
5
-5
138
0
1
2
0
2
-10
4
2
-9
-4
0
601
-6
-2
-7
-5
-2
-8
0
3
6
0
1
256
2
-1
0
8
0
11
2
2
-3
6
-1
800
1
-6
3
10
0
1
-1
5
-33
-29
4
111
4
-16
-1
-31
0
1
0
0
5
12
-1
-253
1
-7
0
6
0
1
0
-2
-6
-15
0
-22
-1
-10
-1
2
-2
-5
2
6
-4
-2
-2
-40
5
-9
-1
-12
2
-1
1
2
6
10
-2
60
-1
-5
0
-2
-1
-7
0
0
-1
-7
0
-14
0
-2
1
3
3
-10
-3
-1
24
-5
7
-108
0
0
-1
16
5
-6
-4
-6
-2
-13
-4
-1
7
2
38
23
-3
3
-1
3
-1
-2
4
-1
-38
-3
-6
2
1
4
-7
-3
-3
-6
-7
22
2
2
-3
2
0
0
-2
0
-2
0
1
-3
-2
8
-16
-16
0
0
-2
11
-1
0
3
-3
5
-1
13
3
5
-13
-41
80
2
-9
-3
7
7
-27
41
33
0
0
4
3
-1
3
1
2
0
1
-5
-9
1
0
66
-13
-1
-10
0
0
2
1
8
3
0
1
-1
0
-2
1
6
1
47
-19
7
23
0
-2
14
32
1
-2
-1
2
1
4
-14
-11
0
-1
1
0
1
2
-2
0
-2
1
-1
-2
-5
3
-10
-1
-3
-3
-2
-15
61
14
11
25
9
0
-29
-10
-98
61
-55
-17
-5
-142
3
-10
1
-1
35
4
-20
5
4
12
-4
15
44
-4
3
0
-174
22
-235
-158
-30
9
-16
19
3
-2
9
-2
2
19
-69
2
-2
-5
-13
7
-22
2
-9
8
46
94
-288
-14
-181
126
-10
-44
-546
-55
-6
-2
-2
-22
-49
0
32
43
-14
-12
-30
-14
-6
0
9
7
-15
6
-12
1
0
-5
22
3
2
2
1
-1
-11
-1
-116
30
-9
19
-18
1
8
3
4
-9
-193
17
-22
20
-14
-28
332
-46
-5
-1
-7
15
-39
-4
-784
-30
6
-198
-4
1
1
-1
0
-19
2
3
2
8
-1
-4
-1
-5
15
-4
-73
3
-16
70
-8
9
4
4
162
-10
-12
0
-19
-5
8
18
-3
28
-3
-9
-11
39
-5
-9
3
2
-29
-2
0
167
0
2
14
0
-10
-18
-8
-5
-86
-8
4
305
4
-26
28
14
-10
0
-7
-1
-71
4
5
331
-7
21
12
-9
-66
6
20
-1
118
20
-18
331
-15
-32
-15
-55
3
-31
1
4
29
-11
-3
-257
4
-9
-9
18
-1
4
10
0
52
11
-2
-225
2
8
-3
0
0
-10
4
2
-31
-3
-1
-13
2
-1
1
15
-11
-13
-7
-4
52
-5
1
-627
13
-1
12
-58
2
13
2
-5
12
2
1
-16
1
3
6
12
-1
-1
1
0
-2
-4
0
-6
0
-4
-2
1
33
-6
-7
-2
26
9
0
115
-4
8
-2
5
-370
48
90
1
2
21
142
-41
14
-18
-30
-6
34
-21
17
-1
14
-8
-11
-32
10
-3
13
-7
48
74
10
-2
-5
12
20
-240
8
-12
17
-1
-32
-108
12
7
-14
-3
-34
-59
24
-2
23
11
-228
-244
13
4
21
14
-27
-649
56
11
26
13
-60
-20
-78
-11
2
256
-31
642
6
53
-42
-3
-19
22
-24
-1
-5
23
-25
-113
-10
5
-7
6
6
73
-19
0
4
-250
-21
-58
-2
-9
-17
-1
222
-140
40
0
-10
58
-10
-212
15
28
-28
-5
169
-45
20
-1
0
43
-11
59
0
-12
14
2
-4
16
2
-1
-1
2
-1
-2
-7
1
-4
2
29
-66
18
-12
-13
10
-5
140
25
20
29
-9
-1
47
58
104
-6
-28
-4
-6
-479
5
4
3
-2
3
-4
-2
-4
-6
2
12
188
3
11
3
-6
-27
-7
6
-9
-5
10
40
-199
13
-36
-17
6
3
-12
10
-7
-9
-3
-18
-146
16
-20
-11
-5
-57
79
163
-5
-3
-3
24
401
-7
54
-98
-3
10
3
17
-1
-10
5
-1
-18
-23
15
36
0
-2
5
0
-2
3
1
3
-12
-4
-8
-23
1
1
-40
26
-3
99
0
3
3
-2
5
2
4
-7
20
0
-4
-9
1
-21
-70
-22
0
-7
-1
-1
-27
228
2
-33
-1
-2
23
0
-14
-17
-1
-3
0
-2
0
-4
0
0
-4
0
7
8
5
73
8
16
-10
15
-6
-1
-190
26
-6
-17
-253
11
-10
-118
-452
10
-5
2
-13
13
9
-40
-4
1
-8
-47
-282
2
1
-4
4
3
23
7
8
16
31
-276
-1243
2
8
-5
-213
3
67
43
104
2
13
176
253
-1
15
4
-46
-23
11
0
105
-32
2
1256
75
-3
-47
-46
604
-8
-2
80
-7
39
-3
-182
-11
1
-55
-28
-13
5
-45
-17
-8
-5
-2
83
-4
1
-12
5
86
1
-7
1
2
-3
3
-1
18
-1
0
-10
15
3
-13
7
10
13
-7
-1032
-35
5
-24
-9
-157
-2
12
12
25
-6
0
-133
20
-3
1
2
-63
0
12
-1
1
4
2
36
6
0
-3
-6
26
-1
-10
0
-171
-10
2
-272
-295
-3
0
11
72
1
8
6
-54
7
-157
-21
-28
-173
-402
-32
-7
-137
286
23
-34
-3
-557
-27
-44
82
-18
-2
3
21
192
6
-36
0
-144
34
-279
859
26
-13
6
137
-18
29
-42
-5
-438
8
-188
1
-11
-8
-1
-30
214
-35
-112
-41
-7
83
-596
186
320
230
-9
211
-624
-2
-7
-2
10
-12
-105
2
2047
32
-18
883
271
-10
-1
4
-35
37
22
-5
-2
17
-5
-8
688
19
-10
-4
9
-7
-1
5
57
51
-8
71
-2
-2
-3
19
57
5
-214
-153
13
-28
-14
-57
-2047
-64
7
-4
22
15
-66
56
-2047
-11
10
-314
-82
1
3
-14
0
-192
25
-4
2
16
-5
8
29
1
2
-19
-7
-41
-225
169
22
7
14
31
-663
33
-35
3
-30
-8
87
34
-2
-279
-6
-70
-72
-12
6
30
-5
6
-51
7
-8
221
1
-15
40
12
-39
-72
28
20
-36
-9
10
151
-15
-3
71
0
13
5
-3
1
-117
12
0
424
8
-29
-29
10
84
87
-254
-4
245
23
-126
822
13
-241
-266
-79
0
-23
-14
2
3
-21
-5
71
-4
-11
16
-14
-1
-23
-9
0
48
10
4
-139
-1
9
15
6
-1
-17
-1
2
-28
-33
0
-114
7
15
4
0
244
-4
-11
-17
-17
-6
4
-881
12
-131
-41
6
-9
15
-5
-5
28
11
9
67
-1
0
11
-14
0
-61
85
2
-15
-7
-1
-62
0
-27
332
-4
280
-17
-24
2
4
30
-11
-339
-5
-21
7
25
488
-174
-117
0
-24
17
141
-75
-17
-14
6
-15
74
-118
-37
-5
20
2
-4
86
46
13
0
29
-30
276
-40
-16
23
96
2
-76
165
-23
61
-16
-92
526
-75
12
-17
4
-3
142
-6
16
26
-37
105
1310
118
-3
176
-135
79
-1092
-15
-46
168
824
69
150
-55
-11
-1
-747
99
749
27
20
-24
6
69
172
-15
-4
10
-19
-10
-202
12
5
49
-14
78
135
17
-2
-3
2047
24
-790
50
24
-16
3
87
-315
-15
-11
-30
75
33
-585
51
-17
-61
-43
160
23
82
-1
-5
7
19
11
-7
0
32
-8
-3
-49
-5
2
65
-3
-5
-34
4
4
-2
-218
143
980
24
22
-75
-7
-29
-32
-68
4
-4
15
-43
432
39
-124
15
-11
4
142
-1840
-2
54
41
8
-13
6
-5
3
-24
11
-13
1445
10
-82
173
25
-96
75
-11
-50
-63
10
-127
408
18
-61
-84
-5
6
6
-9
-2
-29
16
14
-1
42
24
24
-4
99
-90
-215
98
151
-11
-100
-92
35
-1011
2047
4
-6
-247
-1592
-3
562
5
2
-37
-23
7
8
-1
2
-8
-2
-8
58
-2
-11
-29
-5
-34
-39
1
-3
1220
-56
3
-1589
1
-8
-4
-1
1
13
4
186
26
-7
25
25
2
96
-327
-10
5
-73
-2
-58
98
196
0
29
1
-2
-17
11
-23
-47
-1
1
-4
0
4
-2
13
-3
3
-4
28
-2047
18
139
2
2
-20
-9
10
3
-1795
41
-95
90
-4
57
-572
-15
250
5
-66
41
-10
10
-27
19
7
-56
885
-23
57
-1
2
4
-12
-2
-1
-9
-3
11
743
-23
617
2
59
-25
23
16
-19
-7
-2
3
761
-14
-412
-7
204
20
0
-10
2
23
-33
135
-110
-69
-528
-4
-34
121
66
-1
26
2
-1
-120
-75
-93
28
4
20
-28
-14
0
157
6
-6
-16
44
5
14
-4
26
6
-22
13
17
-3
-2
138
-18
5
-18
-1
1
17
-18
-4
-388
3
13
78
-272
43
153
-7
8
84
-34
1
-21
21
1
24
40
-6
-5
-4
-6
-3
2
-3
1
2
25
-29
-1
-10
0
-7
0
20
-2
-5
8
-1
16
-15
-511
-5
274
-15
-44
45
-32
27
16
14
-1226
8
55
-42
-2047
-17
-22
4
-200
13
-47
38
190
8
-19
-211
-2047
7
4
7
29
-12
-40
3
531
33
-28
486
-2047
-22
-1
-1
-121
-141
-15
40
-8
1
37
18
-117
15
30
6
32
-84
19
-9
-207
-45
-51
1043
108
54
-43
-51
1368
57
97
91
-65
67
8
-296
-103
-8
-26
-28
-32
12
-40
-18
16
-4
-26
-55
-8
-9
-4
-3
79
37
-7
5
-5
1
6
245
4
-7
2
-18
-58
3
-22
15
-523
12
6
-1339
-1478
-3
1
-4
-484
-18
-98
-4
-14
-13
3
-102
32
1
1
7
153
6
13
3
-3
1
4
-83
5
2
12
-5
-30
-13
-20
1
-540
-36
72
867
-839
16
33
28
254
-19
-84
-15
21
12
-29
26
-18
-160
3
-152
58
-27
-4
12
-18
18
-21
7
4
58
2
11
-23
-14
-4
-21
2
4
-23
11
4
940
0
36
-28
-61
33
-44
-56
11
8
0
8
2047
-6
-39
-2
-15
7
-69
36
10
-90
38
-27
308
13
-26
1
-211
-6
-174
14
8
-93
59
8
544
7
6
6
-11
9
-5
-4
-6
20
-8
-12
-1080
-1
-2
2
-40
-4
-1
13
1
25
-8
12
-187
1
-1
-5
35
4
0
82
22
64
-5
-16
101
-6
-29
-20
-71
-9
-12
-10
10
-7
4
-4
224
-2
21
-3
-4
-1
-22
-1
0
-2
-1
-2
-50
1
1
0
120
-2
132
91
97
18
-16
8
-54
1
-10
-25
-5
20
-29
10
-6
3
-39
-20
5
4
-24
-68
-2
18
-56
-41
-6
7
19
26
-9
3
-1
127
0
21
-11
33
-86
10
-60
-61
-17
-16
40
-59
7
21
-18
-29
22
3
23
0
13
-8
-1
-143
-4
10
9
-54
-159
10
134
-11
-86
-16
-47
134
-4
-37
3
4
-6
-1
28
1
-63
3
-111
-1
1
24
-16
14
3
-1
26
4
-6
1
-38
27
1
-16
1
-8
3
-4
10
2
-7
-3
-59
37
0
-3
0
17
-4
4
-24
-1
-19
5
-46
-147
5
15
12
3
9
-1
-1
3
-4
-2
-3
-17
0
6
6
-33
97
2
1
0
10
6
22
-3
1
-3
-3
36
2
32
-39
-41
17
-8
3
23
-2
15
-65
-1
-31
5
-6
0
115
-15
-17
-23
195
54
-11
-11
-32
-1
7
-1
31
-25
310
19
10
3
-20
21
-15
-1
-4
30
29
-34
-524
19
8
9
17
31
-101
6
4
28
-40
9
618
-18
-13
-33
-15
-47
-43
4
1
48
598
-13
128
-7
-59
75
102
4
-9
3
13
-35
-31
17
603
-5
-406
-12
-65
2
-11
0
-6
8
198
-16
2047
11
-2
-16
2
4
-6
0
-1
-8
-30
-13
212
3
-20
2
-20
22
-48
-5
-4
-22
-124
13
-1411
-26
32
-32
-106
-10
12
-1
3
16
30
7
-25
4
339
-2
2
-3
-31
0
-3
-8
-36
3
22
5
-4
6
0
-9
-47
11
-7
48
-88
38
253
57
3
0
-20
-18
0
126
-8
50
7
-15
-5
-11
3
-49
28
0
-14
103
-7
35
9
18
-9
-9
6
-10
0
2
-44
96
-34
-5
0
-214
-14
54
23
-103
-31
-28
-39
148
-20
28
22
418
12
-7
3
27
12
-36
-95
122
-61
-33
85
-861
-60
-9
2
-31
5
-15
6
-6
-19
-461
99
173
-5
12
8
-17
-5
-2
-2
-69
2
-87
0
487
11
-1
1
-17
0
-2
15
3
14
105
20
-35
3
1
1
-5
-2
-3
41
157
23
30
31
217
3
10
-3
10
0
-6
-20
23
-20
7
5
49
1
5
2
8
-3
3
70
-35
3
14
-1
-12
29
0
1
3
2
-16
-9
-26
-4
-25
-14
1263
-16
17
44
14
-12
9
11
-19
-17
-1
129
-17
16
-144
49
43
-40
0
-5
-20
23
-2
-93
0
8
-140
12
0
-101
5
-14
-96
-3
-16
100
-6
-65
-89
-5
12
-190
-9
-6
81
-45
5
-194
-2
28
-241
-92
-11
-113
2
-12
-131
-1
6
-829
21
-115
197
119
26
-30
-12
-8
6
-20
5
6
-15
33
-34
-12
2
-23
1
1
-3
-38
-1
4
-5
-15
20
8
22
12
3
-3
-10
13
3
-25
4
-13
-3
-5
-1
-5
5
-7
-28
-86
-1
15
-7
15
-39
-4
-34
-42
-1
-4
-1
16
3
-1
4
-5
7
-12
-3
-14
1
0
3
7
-1
1
-1
-4
24
4
-12
0
-8
4
-49
1
4
57
-1
-22
101
35
61
-230
-7
10
71
-15
-2
-66
-223
-9
-15
-217
33
0
-1
2
16
-1
-2
9
2
-13
-7
24
-3
-12
7
-1
205
32
-261
-8
57
5
-13
82
-30
5
-13
-1
-492
8
147
8
4
-4
-3
31
-44
-8
-1
5
24
69
-509
-10
34
113
-18
-23
-555
-7
0
2
-3
-17
-301
56
-1144
-1
-70
-19
-353
5
5
2
11
24
-92
6
-5
12
-4
-6
74
2
3
-2
0
0
-39
2
39
44
-11
-27
-42
-1
-32
-2
133
-30
40
-48
29
-15
-9
20
264
-12
-5
-3
-12
14
-52
0
-929
-31
12
-327
-51
1
1
0
1
-3
2
-4
1
5
-1
-2
-6
-1
30
-10
63
-1
406
-84
-23
-53
28
4
141
51
-20
-5
0
4
-7
11
-12
-154
0
-22
-15
4
0
26
5
3
-9
-1
3
37
-4
-28
9
-6
-1
-9
12
-4
0
-6
-2
234
5
1
4
-26
-2
-30
6
5
-6
4
1
276
0
28
25
10
3
16
37
0
130
14
-23
-253
-6
-62
-38
-13
-9
3
17
6
-212
-26
-8
431
1
-31
10
13
6
24
4
-4
21
17
-2
-98
-1
-9
-25
10
1
-5
7
3
-7
-7
-3
-52
1
3
0
-13
17
-33
14
-6
36
-15
9
-815
3
29
35
-53
0
10
0
-4
19
7
3
3
-2
3
2
12
1
10
-3
0
13
-1
0
-1
0
-8
16
4
-320
76
-5
-9
157
9
1
-157
-3
60
59
-2
157
36
14
-5
29
-333
175
-11
-23
3
-41
-30
33
-37
14
-3
17
-33
-9
-83
-28
-5
-8
-17
-53
138
9
-7
-7
23
51
-86
-7
-2
14
-25
14
-126
-39
5
-5
18
-6
-117
1
0
23
-2
43
91
23
-1
-7
-28
-64
-576
-9
-36
-11
-7
103
543
41
2
11
676
-82
-1299
-2
-117
-39
-18
7
51
-10
1
7
11
-11
14
5
-7
11
-6
-17
55
-27
-3
0
-291
9
174
10
10
-7
-2
-78
-365
56
-5
-10
23
7
-324
0
-19
-52
-4
10
-47
16
1
-3
-95
-33
152
2
-6
22
-1
9
-3
-1
-1
-1
1
3
47
4
-3
3
5
-46
427
-39
3
26
33
65
-226
-8
21
25
-8
-9
-17
-37
118
-12
66
4
17
-475
-15
-8
-5
-5
-15
-13
-3
3
11
1
6
278
3
-5
15
-7
27
-11
-1
-21
-31
8
-25
-143
16
-78
-27
8
10
-5
-1
18
-1
-4
-9
-111
17
6
6
-7
10
-6
-29
20
-19
0
14
-3
-18
-9
-129
0
-37
-681
1436
-13
-422
-3
-27
52
-22
-10
1
-1
5
-6
4
0
-4
-4
-4
-21
4
-34
-43
0
0
-157
49
-4
100
2
-2
-2
-4
6
-7
-1
55
-12
-7
-13
-22
6
-15
-46
-46
8
24
-3
-14
-96
309
2
63
-1
-4
31
4
-17
-16
0
1
-1
1
3
8
1
0
5
-1
17
17
-36
-270
9
1
-23
7
-9
-131
2047
-5
6
25
0
-8
-538
32
-162
9
-29
6
-7
12
83
-1
2
26
-15
0
-13
3
8
-12
13
5
4
-1
-11
36
-818
-15
-561
-3
-3
36
54
-3
-5
-4
1
4
1106
11
427
-1
15
-18
18
-5
-4
2
12
26
-10
-40
41
1
-37
6
10
1
2
-1
-5
-42
46
17
-29
5
-28
-18
389
1
-209
3
-3
-29
-22
-4
-13
-1
-6
10
-19
5
-7
3
1
39
1
-4
4
-1
5
-4
-108
1
71
0
3
3
-377
26
-378
5
0
21
30
5
4
3
-1
7
32
1
-9
0
11
-3
-17
-3
16
-1
-1
17
-2
-3
-15
-2
-1
-3
25
-1
-1
1
34
-18
256
-23
-356
6
1
35
10
4
-46
0
-371
3
-37
-35
-625
-8
-5
-4
-15
3
-8
29
2
5
-44
-170
-326
-6
0
-2
-8
4
3
12
-251
-1
82
-194
-530
-1
-4
1
-42
4
-25
26
119
1
18
23
72
-8
4
7
-123
2
-6
6
-1
4
-33
1045
90
-9
-34
-34
619
-15
6
36
97
44
11
463
142
7
11
-25
-662
-3
15
-64
-11
-12
-15
-9
-18
0
-1
2
33
0
14
7
-6
2
12
-38
7
3
-10
-15
-21
-1
-12
31
-114
24
20
-950
-117
11
-13
-16
-357
-7
-11
-6
33
-8
15
-127
42
-6
2
8
-71
1
8
-1
1
0
4
64
-2
1
-4
-1
27
-1
-3
4
595
-20
93
-436
898
-78
22
25
-584
-37
-24
4
24
3
45
1
-25
20
1
-9
-2
61
5
76
1
7
3
4
-4
141
-1
5
-1
-24
-4
-11
29
66
-4
-2
-11
517
15
36
14
-22
-2
-75
0
-33
8
4
7
348
-2
1
6
-33
-3
-29
9
-2
-30
4
30
-1317
4
5
2
4
3
14
17
-1
65
1
5
457
1
-9
-5
-20
11
13
2
6
1
-7
0
60
2
2
2
1
4
2
8
3
19
-7
7
31
-1
2
0
36
1
5
-6
-14
-14
18
9
-221
-2
-2
-9
41
2
38
2
2
-15
2
1
35
0
3
1
-20
-3
-15
3
-1
2
-1
-6
64
0
-1
0
-18
0
-24
25
-28
-74
-4
-30
-164
11
29
25
-14
-34
-23
4
-4
71
3
2
3
-2
35
-31
5
-4
9
-8
12
684
11
1
9
-5
-13
-61
3
-45
23
-2
5
176
21
0
3
1
0
-4
5
-11
42
0
2
-92
17
10
45
-7
-15
-29
1
-22
0
2
-6
-52
-7
3
2
1
21
21
27
-101
-21
-4
2
-20
-40
6
-6
-10
-36
29
9
26
40
-4
2
-3
-12
-3
11
2
7
-71
-9
-25
-41
-1
-1
28
5
0
-5
1
7
-20
-2
27
-12
-4
-1
-43
-13
0
0
5
0
-57
-5
-64
-88
-3
0
22
2
-2
-4
1
3
-12
-4
0
-16
1
1
12
-1
-1
6
1
1
4
-1
-143
-1
-4
-3
2
-9
2
4
-1
16
-98
1
-115
-156
8
-10
28
2
-46
31
-16
13
-20
-33
-40
6
15
22
73
136
-263
49
-715
-109
-10
-561
-365
12
-12
18
24
57
-161
-20
-454
-3
-8
-267
-167
-2
-1
1
-1
-27
602
-69
675
89
-27
-235
-649
16
28
30
27
48
199
-146
-20
112
11
-17
172
-27
69
-25
90
7
-197
123
2
9
4
25
164
89
-2
3
18
75
-201
88
-34
12
-31
-45
8
-109
27
-10
-5
-18
-18
11
-46
44
-7
-30
-103
3
-3
-4
-20
144
-252
20
-58
50
-9
-4
46
-70
1
-6
10
11
-11
-11
-8
11
-6
-18
-20
3
21
66
-16
41
9
-34
-4
4
-9
5
-16
13
-40
-26
-12
152
-104
97
-15
34
-13
-38
-91
-10
16
-15
-6
-15
-50
-8
5
29
-35
5
-4
-5
10
55
5
-3
-83
32
-13
237
83
-30
-16
-65
6
28
10
3
44
28
-8
-227
54
-41
-14
9
-45
-15
-29
8
-162
-67
-4
34
-15
17
-26
39
-86
-21
-21
13
109
27
-16
51
45
66
-7
0
3
-18
-34
-22
93
34
-7
-590
-21
132
28
-4
10
22
5
3
80
22
4
-753
-6
-20
-12
21
-15
-6
-8
-9
2
-13
7
-152
-33
34
-8
27
-6
34
17
-7
259
61
4
-1022
-15
-3
-22
20
3
-6
-1
-6
11
-2
2
-25
-8
-2
-1
1
-18
0
5
19
-48
-7
-10
-62
204
15
4
4
32
12
17
-17
293
32
16
-1566
-59
-66
-36
41
0
29
-24
9
-11
-76
-2
-13
56
12
2
15
1
-10
58
591
2
-299
-15
-37
2
-10
-91
-135
0
-8
227
247
16
-300
-4
-2
-92
10
-22
-70
7
-45
-612
-789
13
-603
-17
62
10
-45
96
77
-11
-65
-13
18
-5
26
0
115
163
6
7
-19
6
17
22
-11
-51
-8
1
-85
896
22
-36
-51
14
55
12
17
-1
45
-8
-1
-75
9
-68
-81
-2
-1
1
30
-25
-17
-1
0
162
3
-7
44
7
41
17
39
-9
62
-10
0
-7
0
-111
-146
1
6
-5
6
-4
-11
2
-4
34
-3
-8
-3
1
-8
-2
3
-2
-16
6
50
25
-14
7
-10
10
60
-33
-8
15
16
-6
-46
-130
-27
-112
-119
-12
1
-5
105
193
6
-2
-17
9
-19
-2
28
-42
-27
29
823
65
23
59
7
-364
44
59
221
4
-22
22
-415
-61
7
-13
6
261
41
23
53
52
71
6
529
44
-14
-47
-53
-729
-3
-22
-5
68
-50
-25
-7
219
-29
16
-17
28
160
-37
23
10
-53
13
-794
23
11
-12
22
170
-28
125
2
-71
-31
36
-338
174
-8
35
-5
73
16
-6
26
20
22
-15
-659
13
-5
-20
-21
-15
-26
-37
7
-12
-88
24
109
76
-12
-11
-4
158
-62
-18
29
2
-2
5
83
43
-2
-12
-7
-6
10
-8
10
5
7
-17
-129
1
-23
-17
0
-21
232
-4
-11
-91
-46
13
-417
155
-8
-53
3
132
-67
-32
-12
-7
8
11
-6
-7
-11
-4
-41
84
-5
7
9
10
-31
12
46
0
-15
10
-145
-34
2
6
12
3
-10
-3
37
-8
-4
8
-173
-15
1
6
-6
-18
-10
-12
-5
1
5
-3
-59
-112
1
4
3
11
-61
-21
86
-17
71
-9
23
99
-3
-39
-35
-3
-7
9
-39
9
19
7
66
79
10
-6
-20
9
-13
-21
41
-11
9
14
-21
82
3
-20
-17
-1
-9
6
-32
1
-5
0
-17
13
0
1
-2
24
-47
-1
-66
-6
2
1
-29
-25
1
-33
5
1
-3
0
16
-4
-2
-1
-8
-6
0
-2
-8
1
6
-21
170
0
-2
10
-29
-122
0
-1
1
-1
-36
-3
-16
-12
-61
-7
-39
-36
2
-25
-5
-14
2
0
5
-17
40
10
-155
3
33
9
-32
-3
-22
10
6
23
-48
-29
1063
26
65
2
75
-4
-12
2
-2
12
-91
-7
1053
4
93
7
82
-13
5
-2
-1
-71
64
11
526
6
56
-3
-12
-9
35
0
-9
6
50
-16
1234
11
-6
-13
128
5
17
-4
-2
11
39
-27
-24
10
-50
1
-56
-6
5
-13
-4
15
111
31
90
0
-24
12
118
0
15
4
6
-13
78
8
-758
3
15
-14
-64
9
3
7
-5
52
274
-17
-240
37
-30
25
131
-3
3
2
3
-4
27
-5
-15
2
2
1
-10
9
27
-9
6
-6
-668
10
-119
5
3
10
56
-5
-16
5
12
7
338
-9
-332
37
-3
41
45
-376
-6
-153
42
207
952
49
58
7
128
-293
-141
-323
-49
39
225
-169
-281
1204
54
10
986
170
-152
-130
-22
16
20
-128
-73
-290
95
12
133
-299
-65
62
20
-14
-22
-392
-242
-2047
62
-8
-1688
784
-6
-7
-29
-13
56
-485
-5
-89
52
-52
-81
1199
-46
-162
-31
185
31
-216
69
-33
24
6
-2
-377
-17
-404
5
-58
90
61
603
-22
32
13
50
-868
196
18
-17
-67
61
-22
-23
-1
72
-7
-15
-1538
-78
542
24
22
187
-306
-140
87
80
-32
-63
-812
117
-151
-70
-34
65
6
61
14
27
-18
64
-91
25
-392
1
-12
5
153
-18
7
28
-6
2
-16
15
-144
73
-434
485
340
-122
35
89
-26
-18
-661
46
-44
-98
404
4
66
38
-18
-526
-65
51
-165
-13
-27
-30
-157
-45
444
50
-40
-127
143
44
38
56
5
5
-146
-29
278
36
-9
-79
71
83
71
4
36
24
42
29
4
15
6
-148
-20
-33
-47
-90
97
7
69
24
-35
24
-64
311
16
27
12
-28
-119
-21
137
-11
269
45
-45
-1508
-20
291
103
51
-4
-64
-65
3
288
31
-6
-1121
-14
420
80
25
3
-33
351
0
101
35
43
-542
18
-9
32
11
-6
102
-200
162
412
123
74
-1241
28
6
-38
10
-12
-5
115
-159
13
6
-17
-110
95
-12
-36
-2
20
-47
-901
2
7
-7
-55
-57
-9
73
61
-14
-52
14
62
-29
345
111
-69
-2047
-91
19
-466
-62
440
-735
-83
15
110
83
20
-19
0
4
16
-79
-178
-441
209
-51
-136
-220
6
-200
13
-5
5
-68
-105
-205
-26
-24
-70
-129
7
-78
9
4
-1
-40
29
146
-33
-17
35
44
-6
26
-12
30
-8
-89
42
22
167
14
-5
-126
2
-229
-5
4
-8
-93
154
-58
-656
23
-27
-13
14
-97
-8
14
16
-247
440
-6
69
-42
179
-5
53
97
2
18
-6
153
27
-62
93
34
31
-26
-4
38
7
-6
3
-168
-649
22
241
-19
-167
-192
-24
-171
-9
33
-14
267
53
227
-8
13
30
-10
8
-1
-2
-1
-4
-118
25
86
16
-127
31
-21
4
6
2
-12
3
850
51
-63
900
8
-31
-91
-3
-125
-10
27
-5
-334
84
388
7
-75
-33
-230
57
156
266
27
81
-72
-189
-430
223
-72
-110
-867
-187
1887
339
-27
94
212
174
332
57
-32
-64
-2047
75
1900
203
43
71
159
276
-141
10
6
16
-1395
-14
789
-85
46
2
-16
144
-1
13
10
-127
216
-65
-108
-193
1
-3
-61
-130
531
-136
-6
-103
116
98
-539
51
-13
-47
43
-62
374
-90
31
181
11
-2
-337
1
-131
-21
222
-124
559
-89
-17
-71
-204
-40
271
-39
29
-16
-480
134
65
6
-73
197
19
-68
-607
569
-87
-58
19
8
100
6
27
-140
-67
12
26
-148
-14
-16
-61
-11
99
4
7
75
-81
15
45
-89
17
-21
1562
282
85
107
-51
32
44
-19
-699
297
0
182
314
6
-8
15
-9
123
66
6
-166
61
13
300
298
-10
-18
1452
-1534
-65
694
20
37
-1
-7
-567
-48
-5
6
-887
200
-46
593
1
27
38
3
-449
123
-7
23
-439
1098
-16
1629
-22
88
-52
-8
86
51
-2
81
7
7
15
-146
-4
153
-59
37
-448
-142
3
-111
7
72
20
-3
24
-150
2047
-17
-124
525
5
-52
16
29
-256
-26
0
-197
-7
-38
-267
-237
3
-6
-86
22
32
144
1
40
25
-29
276
-407
-2
-58
52
-39
-50
133
-11
128
-312
-10
-395
-353
-4
-25
-4
-7
7
95
1
-5
-31
18
26
-4
-1
14
-18
-2
-51
60
7
40
-5
-7
-2047
1038
-19
-57
164
96
75
267
-45
107
249
5
93
756
-27
31
271
-32
-1248
-51
-39
82
-227
-9
65
16
49
458
-148
-103
22
-50
121
-36
-671
-2
188
-2
21
126
-50
-87
87
-25
14
-32
-316
-11
344
1
-4
63
-81
-49
-224
-5
-60
-51
-728
-4
507
-2
-6
107
-10
-18
67
-4
-40
0
47
7
-26
1
-23
61
-197
10
-124
-7
178
-51
20
22
-61
3
8
-9
147
114
-1588
14
2
-95
-273
29
21
-12
16
-33
115
-49
-140
-11
-109
25
-41
1
51
-1
62
-142
-250
56
40
95
-345
-28
50
12
44
4
-27
95
21
-11
21
-69
52
4
-15
14
3
2
128
-1
5
20
-23
25
132
-62
-35
4
20
-3
38
-183
348
24
-380
31
48
100
-159
16
35
13
-183
-99
-509
305
11
-18
267
-14
23
-155
-149
26
-28
-82
90
-2047
-11
-59
42
8
603
40
132
322
2
-56
145
-2023
26
-36
3
9
764
54
39
116
-71
15
-149
-312
-37
-14
-42
-27
-138
-15
-16
110
-90
-6
5
-726
-386
5
34
-21
-96
24
6
64
-39
-70
49
1529
-9
-5
-63
7
252
98
2
-10
-12
-249
-826
421
62
4
77
13
211
-963
-124
15
14
31
-156
524
102
24
-2
-17
376
254
-21
1
-59
-60
248
-575
-129
202
-151
3
199
-214
254
38
-14
34
-119
118
-95
-19
-43
-6
23
-23
-35
24
-13
40
-34
64
28
-282
7
-3
25
-7
-13
10
81
7
-89
123
-1024
237
-60
-18
386
714
63
-36
56
18
-95
15
-10
168
0
-17
-7
-219
0
-61
270
19
-150
39
-12
1957
0
24
13
-87
-8
-102
186
19
-92
34
-24
395
3
7
-6
-11
12
-42
-115
18
-84
35
9
475
-4
18
1
-18
8
-68
-22
18
3
-3
-26
305
3
-16
-5
-15
2
-62
52
-14
-17
7
9
117
-3
23
-15
72
-10
-19
-227
-11
59
-29
-51
-512
-15
-13
25
-144
8
-9
-66
-7
-30
16
-2
-2047
-1
4
6
-9
-14
26
379
13
110
-35
-35
-376
-14
7
6
-61
-69
-96
346
4
1
4
-6
31
10
10
2
-102
17
-25
-58
-4
-21
4
7
-15
4
-5
-2
-131
27
165
317
-49
57
-22
-30
-121
4
-34
10
-377
-16
-199
-166
-101
2
896
6
-105
24
-103
1317
-35
-21
204
-101
-67
16
2
-24
-15
-27
-914
-17
52
62
28
-50
-30
19
38
-13
-26
-35
-637
-4
27
-19
42
-4
7
-2
3
18
-70
24
-690
24
-24
20
-3
-33
31
-2
-139
17
3
22
-22
-26
-23
-17
-2
-75
69
18
50
22
-43
-18
-40
11
6
-7
56
231
-49
-19
-894
48
27
128
-53
-1386
-98
-75
-45
29
18
4
157
14
0
42
-17
-152
11
31
27
238
-89
38
-222
15
91
85
-55
875
0
3
78
-49
-17
4
-771
1
-1
-24
-1
0
-3
9
-52
640
-35
-7
-11
-10
-61
-50
-91
19
-21
24
-15
-122
-585
20
96
-30
44
29
37
-525
-7
-62
158
-111
27
19
-8
5
139
-51
255
-10
-9
-722
-1327
35
-346
-22
20
4
-417
-77
-32
13
-206
-236
-409
9
-227
-12
6
21
-69
-8
1078
6
46
-132
-145
-2
100
11
10
41
43
3
302
-3
590
38
104
-25
148
5
-7
20
-189
9
-596
4
30
36
130
22
-90
-12
0
17
-49
-15
-343
5
-35
44
26
-88
157
70
-21
35
-89
-55
-634
40
-15
3
-82
10
333
-5
6
5
-203
-27
795
-5
-27
19
4
-65
519
-36
21
32
-109
-114
338
29
-60
437
313
2
-93
-24
-5
0
-46
27
21
17
10
25
181
24
-1214
6
-4
-12
-53
-5
53
-5
1
32
48
-24
-309
-43
13
14
1320
-77
-1781
-13
-6
93
-15
34
-1230
5
121
41
44
65
1
-18
390
-210
-118
-129
-215
-22
-510
15
21
-127
-53
282
52
97
-124
-76
-117
-8
-332
1
23
-56
-24
146
73
44
-51
17
35
-7
29
-13
25
32
4
-36
7
-10
16
-152
30
3
-39
10
-19
6
9
15
-24
88
4
71
-45
6
-14
23
-9
-18
-16
110
80
113
28
48
-126
15
-188
51
-38
72
-29
102
-246
214
97
67
-26
1
185
-12
1
-21
-10
56
24
-63
-18
4
416
6
-54
49
-34
98
-5
177
148
279
-61
13
109
3
30
7
-22
-128
-1
5
-93
14
16
-298
11
-4
-1227
2
-1
9
1
-58
-14
-7
16
-9
-4
13
300
9
-24
-27
15
49
233
-166
-18
16
180
-4
39
9
526
2
-29
-25
254
20
-3
-21
-43
0
182
-1003
302
-4
-176
132
95
14
-132
-5
-214
-4
105
-577
63
-7
-67
67
48
27
20
0
56
24
68
-68
84
-45
-17
-57
-8
7
1
30
-239
-33
28
-55
131
-21
10
-14
-26
-9
67
-51
-459
-217
-10
17
224
-8
43
124
50
54
490
2
-240
45
-55
-133
1129
2
59
24
-81
123
28
-22
10
-38
-7
382
237
-4
62
5
6
-25
-1
54
-509
95
-21
3
99
8
39
259
79
9
-109
1
6
19
11
-45
-63
-1
-4
-6
-63
-13
-17
77
-7
-1
-3
44
-35
10
-75
-29
3
6
10
68
-147
331
4
1129
-86
10
-118
203
105
8
-548
8
33
139
-1
-692
-1
206
-1302
77
3
2
208
-26
104
-23
172
-445
2
-80
157
-19
-124
12
-137
-14
35
-31
149
-311
-6
-3
-68
-2
-65
0
-155
17
-15
67
8
38
-23
-101
-31
4
126
9
92
1
-15
50
180
95
0
-12
31
-3
-52
15
72
-19
58
87
0
-22
-6
-5
-98
3
-152
-13
42
-14
18
-540
-245
2047
3
107
464
151
-165
-11
-11
-3
25
181
204
-138
-3
-14
197
-4
-30
-7
169
20
67
-245
-2047
-640
6
-166
190
-30
-261
92
166
3
2
299
2047
157
-10
-3
-98
-10
-17
18
-20
-10
0
29
-67
44
17
-1
-17
-19
42
-3
80
17
24
221
453
-369
3
-131
-88
-21
-139
53
143
-4
-16
-340
8
5
-38
-1
-78
-6
-3
-36
-4
-26
-182
58
-57
140
-119
-545
154
18
18
-13
35
-28
-81
104
-44
-390
50
-351
107
8
19
-11
8
-20
-25
-30
-39
122
235
701
-39
-3
-10
132
-1
-17
-11
71
-38
62
94
2047
-44
14
-2
-22
1
0
18
-180
-12
67
39
800
-13
36
-8
20
-1
17
70
-490
6
-146
-38
-1183
-20
8
-23
-150
5
4
8
-30
-5
-39
-16
-429
-99
-7
-8
68
3
-5
-5
175
-28
-68
37
-417
-34
-10
25
-139
9
-8
-15
-64
-7
24
-9
30
-18
0
7
15
-2
-14
-31
-42
15
30
-12
30
90
-1
-1
-327
3
-27
-149
-245
-13
29
-26
104
-134
-51
-22
-64
14
60
-104
-277
-851
-5
-726
28
-98
-2047
-588
-428
-210
-1
-18
-311
22
18
-138
16
-70
79
-106
-94
-1
-11
1
-191
-24
11
-150
17
-87
133
-54
-173
-11
3
-13
-63
13
-2
56
-4
63
80
36
-7
30
23
-13
-43
228
-3
39
13
2
56
-6
-48
-36
-1
2
-32
180
-3
-249
8
-4
256
-69
-35
-3
140
-92
-708
134
6
-1976
-7
-346
-1169
492
-191
-60
31
-10
-200
216
1
138
8
-33
-183
-42
192
11
22
-32
548
414
10
1061
10
230
1144
-315
-304
-68
-28
25
-181
250
1
-178
3
-172
245
87
238
-23
-26
-3
197
28
3
20
-6
173
2
0
-25
6
9
9
-2
-126
2
-59
21
-42
-601
-164
988
-33
50
2
11
-7
-21
372
-21
30
11
-41
-20
2
16
-12
-13
139
-484
30
-1203
64
15
-886
272
-35
-6
-10
-7
47
-299
12
507
53
1
71
271
-25
-15
0
3
-7
-104
-21
51
49
-12
-121
141
6
11
7
23
11
216
-10
68
-10
15
18
-92
2
39
-16
-20
6
30
-155
-16
-80
-12
13
546
4
-71
-7
-85
95
-519
127
-20
19
-26
26
4
-13
-9
-4
-10
2
63
36
67
42
-2
17
-190
-5
76
17
-8
118
-479
-81
-62
44
-11
60
104
-16
30
1
12
4
-18
-11
-10
19
-11
-15
-5
6
1
2
1
-10
-6
1
0
-2
-10
-8
-1
-3
83
6
-31
119
-318
103
94
68
-26
139
-383
2
19
-18
2
4
51
15
0
23
4
-32
3
30
8
35
30
-2
454
91
7
-69
10
-21
-31
39
-7
10
28
5
186
34
8
28
2
14
-9
14
1
-14
-26
3
-22
-4
1
-151
-2
-10
-4
38
-9
-6
0
12
86
51
-8
208
-3
22
-7
-28
67
22
-2
-2
259
24
6
-834
3
-14
-26
24
-15
47
49
-3
181
101
-5
-572
1
97
6
-1
15
1
-2
2
85
3
-7
-466
1
6
4
-16
30
34
18
4
188
88
-21
-788
0
-4
-14
-33
0
-3
-4
-6
4
0
0
11
1
58
-3
7
-2
1
5
-1
6
6
3
63
-3
-14
7
8
29
-10
-33
-10
120
19
-24
-958
7
8
-14
35
-18
-46
17
2
-163
26
16
49
-44
19
0
28
-11
-14
-500
997
22
585
9
45
24
43
-198
-97
-5
-6
281
-440
0
-19
8
24
17
33
-72
-18
4
10
101
-92
-8
27
6
-12
-7
-21
29
34
-6
-10
-17
-17
13
1
0
2
-63
6
-26
-45
-4
74
2
-20
12
-28
-6
25
-686
-22
-50
-34
-11
0
-18
-4
-22
-10
-3
-49
36
-7
-157
-172
0
17
17
-52
21
2
0
7
-77
-12
13
17
-3
61
-51
25
91
-16
0
52
138
-19
-209
-284
-2
9
0
5
13
5
3
4
13
-3
-4
-7
0
-2
0
-1
-2
10
-1
-2
6
-3
18
12
4
7
17
-67
40
-94
13
38
-72
-44
-172
-292
139
-16
116
179
61
1
-13
2
78
11
-14
0
74
-63
2
772
2
43
-28
0
648
11
9
62
31
-31
6
-596
-8
13
-13
-6
522
5
1
65
-6
30
-8
-237
-10
-3
-28
-23
183
0
-30
14
0
-28
-7
-179
69
5
18
3
-65
-4
-1
1
-104
-3
-69
-848
127
11
-24
18
66
-26
11
-6
65
-35
130
130
-118
-6
-13
9
19
-8
22
40
-7
18
-33
84
-70
16
-24
-1
247
1
-10
-8
-90
-25
-131
555
-91
23
-13
-17
167
14
28
29
1
4
32
174
10
23
-11
-3
-1
1
1
5
4
3
-4
-47
-2
-7
2
-1
19
-3
-6
-6
-7
13
-7
539
-175
24
-32
-19
169
22
18
-6
-176
41
16
-8
23
-36
-4
-43
8
8
14
-16
93
27
15
16
79
74
-31
-695
0
279
13
76
46
12
1
5
40
20
-11
-7
-5
-62
5
39
-13
6
2
6
2
-16
9
29
2
-139
10
2
-2
0
1
-9
9
63
